weight 32 3 3 3
-41 -78 -14
-48 -127 -11
0 1 -11
34 81 8
45 73 10
-1 73 10
6 7 4
5 41 3
1 -73 1
-13 -62 -4
-12 -64 -4
-12 65 -4
-50 -73 -7
-53 -127 -18
35 -127 -18
-19 -66 -18
-22 -82 -24
-15 47 28
9 39 3
27 127 15
26 121 15
-2 -1 -5
28 125 16
22 125 16
5 -9 4
2 0 -2
1 9 3
-16 -7 44
-76 -12 74
-62 -28 74
-47 -8 39
-120 -16 127
-114 -16 127
-50 18 24
-61 -4 84
-16 -40 48
54 -46 -6
127 -105 -20
65 -46 -20
1 -2 1
98 -76 -19
97 -76 -19
-28 27 -1
4 -4 1
29 -28 -1
-2 -127 2
7 120 1
-5 0 1
-41 -101 -10
0 0 -3
-6 0 -3
2 4 -2
36 109 10
6 -2 0
-52 -127 -54
-30 -36 -18
19 26 -18
3 -45 -4
13 -11 16
-9 -11 16
13 -8 22
26 11 32
4 9 -5
7 -58 53
9 -68 77
-5 -53 77
0 -81 86
6 -127 106
27 -127 106
-2 -36 45
2 -96 59
0 -36 37
42 39 31
28 -14 18
35 36 18
14 57 45
-75 -127 -81
-36 -127 -81
9 5 -5
-6 8 1
-7 18 26
-29 11 -41
-1 10 -1
2 4 -1
20 -127 -64
9 -9 1
0 -9 1
-21 16 19
2 3 7
-2 0 0
57 21 107
82 125 85
-61 -29 85
-84 -9 -54
-30 -12 -41
-29 -12 -41
-93 -91 -110
-92 -120 -127
30 5 -43
0 0 3
0 0 5
-1 0 5
0 0 2
0 0 6
0 0 6
-1 1 -2
-1 0 1
-1 0 0
54 60 58
90 127 53
30 -1 53
17 47 29
96 116 53
-54 116 53
-13 -20 -35
9 7 -11
-13 -48 -39
-33 -78 -20
-13 -65 -27
37 41 -27
-85 2 -12
-72 -127 -59
2 -127 -59
-28 -59 -18
18 36 25
59 51 53
-56 -127 -39
-23 -53 -11
15 1 -11
-6 -37 -16
7 -16 -1
-2 -16 -1
16 -2 16
22 6 13
-5 -4 10
-3 4 -1
6 119 2
-5 -127 2
9 -10 -5
49 7 4
-58 7 4
-4 1 0
2 4 4
4 -5 -5
0 0 0
0 0 0
0 0 0
0 0 0
0 0 0
0 0 0
0 0 0
0 0 0
0 0 0
17 24 3
8 2 3
39 95 3
6 -25 -15
-64 -127 -37
23 -127 -37
-11 13 8
-76 -105 -32
-13 10 47
-13 35 -16
-16 109 -94
-17 104 -94
-13 18 -13
-3 127 -116
-16 127 -116
-11 -10 23
-1 36 -33
-3 43 -41
-11 28 -8
-37 54 9
-11 24 9
-30 32 2
-127 85 -30
-48 85 -30
0 25 13
-38 50 -18
-8 19 -2
-46 53 -3
-77 58 3
-42 41 3
-77 94 -6
-102 110 15
-127 110 15
-74 59 -11
-83 94 -2
-49 55 -8
1 -4 4
3 7 3
-1 -10 3
20 65 7
44 120 13
8 120 13
-21 -61 -13
-46 -127 -12
-5 -114 -16
45 61 80
-127 -108 -87
-74 -18 -87
65 116 70
-29 -49 -20
47 -49 -20
25 12 -12
-10 -16 -18
4 6 36
47 -20 -29
77 -18 -53
57 -4 -53
69 -20 -46
119 -29 -103
127 -29 -103
52 -5 -34
51 -1 -67
20 18 -27
3 -12 6
8 -9 -1
12 -17 -1
24 107 23
-4 -109 -11
-54 -109 -11
13 127 0
-7 33 8
12 12 -26
32 57 20
16 11 12
-10 14 12
-46 -127 -56
-44 -68 -31
22 -68 -31
37 59 27
18 30 15
0 24 21
47 96 3
111 74 -20
-14 13 -20
49 24 52
127 38 83
55 38 83
-55 -65 8
46 14 83
-30 -57 67
-51 -116 -18
28 127 10
26 -18 10
-1 -69 -5
57 103 10
-27 103 10
-2 -14 -3
-27 -32 5
-1 -86 -16
9 0 -6
0 -7 -11
4 -2 -11
5 -1 -9
-5 -6 -14
-2 -6 -14
0 1 -6
-1 -2 -8
-5 -5 -8
-9 -17 0
4 -9 6
100 127 6
-8 3 0
3 -3 4
32 -3 4
3 2 -3
0 -7 -3
-16 -11 9
-1 4 -3
10 120 5
8 127 5
-6 -1 -2
-14 -117 -4
-6 -117 -4
6 3 4
3 -7 -1
-1 -8 -2
0 0 0
0 0 0
0 0 0
0 0 0
0 0 0
0 0 0
0 0 0
0 0 0
0 0 0
bias 32
1677 63559 61158 7062 59500 2616 232 12062 50276 19055 65417 -1073741952 203435 66102 -9589 1711 -1073741824 36997 1552 12244 3018 2607 26657 3402 8813 27610 -1391 1836 -1073741824 -10458 3273 -1073741824