weight 32 3 3 3
-41 -48 0
34 45 -1
6 5 1
-78 -127 1
81 73 73
7 41 -73
-14 -11 -11
8 10 10
4 3 1
-13 -12 -12
-50 -53 35
-19 -22 -15
-62 -64 65
-73 -127 -127
-66 -82 47
-4 -4 -4
-7 -18 -18
-18 -24 28
9 27 26
-2 28 22
5 2 1
39 127 121
-1 125 125
-9 0 9
3 15 15
-5 16 16
4 -2 3
-16 -76 -62
-47 -120 -114
-50 -61 -16
-7 -12 -28
-8 -16 -16
18 -4 -40
44 74 74
39 127 127
24 84 48
54 127 65
1 98 97
-28 4 29
-46 -105 -46
-2 -76 -76
27 -4 -28
-6 -20 -20
1 -19 -19
-1 1 -1
-2 7 -5
-41 0 -6
2 36 6
-127 120 0
-101 0 0
4 109 -2
2 1 1
-10 -3 -3
-2 10 0
-52 -30 19
3 13 -9
13 26 4
-127 -36 26
-45 -11 -11
-8 11 9
-54 -18 -18
-4 16 16
22 32 -5
7 9 -5
0 6 27
-2 2 0
-58 -68 -53
-81 -127 -127
-36 -96 -36
53 77 77
86 106 106
45 59 37
42 28 35
14 -75 -36
9 -6 -7
39 -14 36
57 -127 -127
5 8 18
31 18 18
45 -81 -81
-5 1 26
-29 -1 2
20 9 0
-21 2 -2
11 10 4
-127 -9 -9
16 3 0
-41 -1 -1
-64 1 1
19 7 0
57 82 -61
-84 -30 -29
-93 -92 30
21 125 -29
-9 -12 -12
-91 -120 5
107 85 85
-54 -41 -41
-110 -127 -43
0 0 -1
0 0 0
-1 -1 -1
0 0 0
0 0 0
1 0 0
3 5 5
2 6 6
-2 1 0
54 90 30
17 96 -54
-13 9 -13
60 127 -1
47 116 116
-20 7 -48
58 53 53
29 53 53
-35 -11 -39
-33 -13 37
-85 -72 2
-28 18 59
-78 -65 41
2 -127 -127
-59 36 51
-20 -27 -27
-12 -59 -59
-18 25 53
-56 -23 15
-6 7 -2
16 22 -5
-127 -53 1
-37 -16 -16
-2 6 -4
-39 -11 -11
-16 -1 -1
16 13 10
-3 6 -5
9 49 -58
-4 2 4
4 119 -127
-10 7 7
1 4 -5
-1 2 2
-5 4 4
0 4 -5
0 0 0
0 0 0
0 0 0
0 0 0
0 0 0
0 0 0
0 0 0
0 0 0
0 0 0
17 8 39
6 -64 23
-11 -76 -13
24 2 95
-25 -127 -127
13 -105 10
3 3 3
-15 -37 -37
8 -32 47
-13 -16 -17
-13 -3 -16
-11 -1 -3
35 109 104
18 127 127
-10 36 43
-16 -94 -94
-13 -116 -116
23 -33 -41
-11 -37 -11
-30 -127 -48
0 -38 -8
28 54 24
32 85 85
25 50 19
-8 9 9
2 -30 -30
13 -18 -2
-46 -77 -42
-77 -102 -127
-74 -83 -49
53 58 41
94 110 110
59 94 55
-3 3 3
-6 15 15
-11 -2 -8
1 3 -1
20 44 8
-21 -46 -5
-4 7 -10
65 120 120
-61 -127 -114
4 3 3
7 13 13
-13 -12 -16
45 -127 -74
65 -29 47
25 -10 4
61 -108 -18
116 -49 -49
12 -16 6
80 -87 -87
70 -20 -20
-12 -18 36
47 77 57
69 119 127
52 51 20
-20 -18 -4
-20 -29 -29
-5 -1 18
-29 -53 -53
-46 -103 -103
-34 -67 -27
3 8 12
24 -4 -54
13 -7 12
-12 -9 -17
107 -109 -109
127 33 12
6 -1 -1
23 -11 -11
0 8 -26
32 16 -10
-46 -44 22
37 18 0
57 11 14
-127 -68 -68
59 30 24
20 12 12
-56 -31 -31
27 15 21
47 111 -14
49 127 55
-55 46 -30
96 74 13
24 38 38
-65 14 -57
3 -20 -20
52 83 83
8 83 67
-51 28 26
-1 57 -27
-2 -27 -1
-116 127 -18
-69 103 103
-14 -32 -86
-18 10 10
-5 10 10
-3 5 -16
9 0 4
5 -5 -2
0 -1 -5
0 -7 -2
-1 -6 -6
1 -2 -5
-6 -11 -11
-9 -14 -14
-6 -8 -8
-9 4 100
-8 3 32
3 0 -16
-17 -9 127
3 -3 -3
2 -7 -11
0 6 6
0 4 4
-3 -3 9
-1 10 8
-6 -14 -6
6 3 -1
4 120 127
-1 -117 -117
3 -7 -8
-3 5 5
-2 -4 -4
4 -1 -2
0 0 0
0 0 0
0 0 0
0 0 0
0 0 0
0 0 0
0 0 0
0 0 0
0 0 0
bias 32
1677 63559 61158 7062 59500 2616 232 12062 50276 19055 65417 -1073741952 203435 66102 -9589 1711 -1073741824 36997 1552 12244 3018 2607 26657 3402 8813 27610 -1391 1836 -1073741824 -10458 3273 -1073741824
weight 1 3 3 32
-17 21 -3
-12 127 -8
-10 -6 -11
-77 -11 87
-127 5 121
1 1 1
-82 -104 -4
3 -19 -7
77 127 10
28 5 -6
-38 -127 59
26 -16 7
1 127 -11
-44 2 8
-19 -64 3
14 14 -16
3 -127 4
2 5 10
-3 7 -10
-19 -127 -8
-1 -32 -10
11 -19 9
-6 127 -32
-12 18 -5
-3 7 -3
2 127 11
1 -8 0
2 -1 -2
-1 50 -127
0 4 3
-4 25 -21
-21 127 -22
-3 0 1
0 0 0
11 0 0
11 5 0
12 1 -14
-127 60 58
-2 5 -2
-11 127 20
-12 -67 -37
10 -22 4
1 -20 -1
-13 127 -23
-2 15 -2
-5 -10 -4
9 127 0
-11 -3 -8
0 0 0
0 0 0
0 0 0
127 -116 -13
-48 28 17
-6 12 -2
4 43 -17
-43 -127 73
1 -90 37
2 23 -17
-1 -127 34
6 -4 6
-7 38 -9
10 127 -8
1 0 -10
-17 127 -22
-10 14 -9
-4 0 -5
3 1 1
-2 127 6
3 13 0
-24 -4 7
15 127 -54
-19 16 -13
8 -127 7
11 32 -2
1 18 -5
11 114 -122
-17 -95 127
3 -24 21
2 -63 0
-77 -127 -56
13 -30 19
0 -2 -20
-20 127 7
-2 -1 -7
16 33 -16
16 82 33
8 -8 0
-38 -26 7
127 33 -23
20 21 -16
2 -8 6
11 -127 13
8 7 5
6 -5 0
-6 50 2
0 3 0
bias 32
-2982 1894 1463 16436 666 21992 11369 -128 -8536 17894 -1503 -1073741760 5339 4368 -73 -1567 -1073741824 1000 28469 17506 -1278 -657 -1094 150 18102 4211 9502 -242 -1073741824 18 21659 -1073741760
weight 16 1 1 32
-4
-4
11
-10
8
4
-24
5
79
27
-22
0
-4
-50
31
6
0
16
-4
0
10
29
25
4
3
127
-40
-28
0
11
-15
0
9
-1
-1
45
1
21
19
5
114
103
27
0
-51
-13
-116
-34
0
-24
39
2
16
17
95
-34
33
25
12
-3
0
-127
2
0
29
-21
-3
105
-37
34
-66
-53
-21
32
59
0
-52
-57
98
-26
0
-24
-94
12
13
56
-53
127
32
-63
-56
40
0
24
13
0
29
32
54
-3
-7
-20
-42
9
93
-118
82
0
-56
127
73
-15
0
11
7
26
-13
-50
34
-4
-21
13
-21
1
0
-46
71
0
-2
-2
-2
-12
19
-4
-9
-6
-32
96
14
0
-9
-43
32
-12
0
-9
-3
7
-6
12
127
4
-15
-4
1
-10
0
8
53
0
-5
90
-3
4
5
23
15
-21
-50
86
-123
0
-127
-25
-43
30
0
-14
-39
-21
25
4
-78
-1
-35
0
2
-16
0
33
-27
0
-5
1
4
-2
-9
1
0
-1
127
67
-38
0
35
10
10
-14
0
-1
-3
-1
-3
-2
51
4
-4
-58
-3
-7
0
10
-22
0
-5
33
-63
3
-7
13
-34
29
92
-82
127
0
11
-106
59
-28
0
-4
41
51
-24
-7
22
14
-16
3
-15
16
0
-34
-18
0
23
-6
3
-127
-69
36
-7
102
-25
-17
-77
0
-16
-3
3
18
0
-30
91
9
32
-6
2
-82
-17
1
-22
-7
0
35
19
0
14
-17
-3
-21
127
-21
-25
-30
119
7
-75
0
-52
92
52
3
0
-64
-49
-9
5
-60
-71
-14
14
76
-2
-18
0
24
-38
0
-28
-11
0
-3
-35
-8
7
2
76
93
127
0
-73
10
10
13
0
1
7
1
-15
-29
-50
28
-34
31
-4
-9
0
34
-33
0
-1
-2
-7
-54
-14
-6
-16
-44
13
-53
85
0
11
-10
31
-13
0
0
-101
-91
79
0
38
-127
6
-4
-5
5
0
-24
-1
0
9
4
3
98
-127
-23
13
-53
-16
-16
-67
0
13
28
-16
16
0
-24
-58
10
-8
-33
49
66
-3
67
21
-26
0
-9
13
0
18
3
-8
7
-7
43
7
4
-1
105
2
0
31
56
11
-25
0
18
-6
-7
-5
-13
127
26
29
80
6
11
0
41
-12
0
15
-18
0
95
67
127
51
-71
19
-96
18
0
63
-64
-119
63
0
3
-87
-27
-8
-18
79
56
-109
-16
-52
-29
0
65
43
0
-8
22
-6
-2
1
18
1
2
-11
-127
61
0
-108
31
40
71
0
-15
19
-7
-30
27
123
21
58
-92
7
-5
0
17
-17
0
bias 16
-24401 -58847 9063 -34909 -19538 49809 -16038 -18105 19521 17494 -3700 45869 9659 -59490 -9704 -5918