conv2d 1 2 relu6
weight 32 3 3 3
-41 -48 0
34 45 -1
6 5 1
-78 -127 1
81 73 73
7 41 -73
-14 -11 -11
8 10 10
4 3 1
-13 -12 -12
-50 -53 35
-19 -22 -15
-62 -64 65
-73 -127 -127
-66 -82 47
-4 -4 -4
-7 -18 -18
-18 -24 28
9 27 26
-2 28 22
5 2 1
39 127 121
-1 125 125
-9 0 9
3 15 15
-5 16 16
4 -2 3
-16 -76 -62
-47 -120 -114
-50 -61 -16
-7 -12 -28
-8 -16 -16
18 -4 -40
44 74 74
39 127 127
24 84 48
54 127 65
1 98 97
-28 4 29
-46 -105 -46
-2 -76 -76
27 -4 -28
-6 -20 -20
1 -19 -19
-1 1 -1
-2 7 -5
-41 0 -6
2 36 6
-127 120 0
-101 0 0
4 109 -2
2 1 1
-10 -3 -3
-2 10 0
-52 -30 19
3 13 -9
13 26 4
-127 -36 26
-45 -11 -11
-8 11 9
-54 -18 -18
-4 16 16
22 32 -5
7 9 -5
0 6 27
-2 2 0
-58 -68 -53
-81 -127 -127
-36 -96 -36
53 77 77
86 106 106
45 59 37
42 28 35
14 -75 -36
9 -6 -7
39 -14 36
57 -127 -127
5 8 18
31 18 18
45 -81 -81
-5 1 26
-29 -1 2
20 9 0
-21 2 -2
11 10 4
-127 -9 -9
16 3 0
-41 -1 -1
-64 1 1
19 7 0
57 82 -61
-84 -30 -29
-93 -92 30
21 125 -29
-9 -12 -12
-91 -120 5
107 85 85
-54 -41 -41
-110 -127 -43
0 0 -1
0 0 0
-1 -1 -1
0 0 0
0 0 0
1 0 0
3 5 5
2 6 6
-2 1 0
54 90 30
17 96 -54
-13 9 -13
60 127 -1
47 116 116
-20 7 -48
58 53 53
29 53 53
-35 -11 -39
-33 -13 37
-85 -72 2
-28 18 59
-78 -65 41
2 -127 -127
-59 36 51
-20 -27 -27
-12 -59 -59
-18 25 53
-56 -23 15
-6 7 -2
16 22 -5
-127 -53 1
-37 -16 -16
-2 6 -4
-39 -11 -11
-16 -1 -1
16 13 10
-3 6 -5
9 49 -58
-4 2 4
4 119 -127
-10 7 7
1 4 -5
-1 2 2
-5 4 4
0 4 -5
0 0 0
0 0 0
0 0 0
0 0 0
0 0 0
0 0 0
0 0 0
0 0 0
0 0 0
17 8 39
6 -64 23
-11 -76 -13
24 2 95
-25 -127 -127
13 -105 10
3 3 3
-15 -37 -37
8 -32 47
-13 -16 -17
-13 -3 -16
-11 -1 -3
35 109 104
18 127 127
-10 36 43
-16 -94 -94
-13 -116 -116
23 -33 -41
-11 -37 -11
-30 -127 -48
0 -38 -8
28 54 24
32 85 85
25 50 19
-8 9 9
2 -30 -30
13 -18 -2
-46 -77 -42
-77 -102 -127
-74 -83 -49
53 58 41
94 110 110
59 94 55
-3 3 3
-6 15 15
-11 -2 -8
1 3 -1
20 44 8
-21 -46 -5
-4 7 -10
65 120 120
-61 -127 -114
4 3 3
7 13 13
-13 -12 -16
45 -127 -74
65 -29 47
25 -10 4
61 -108 -18
116 -49 -49
12 -16 6
80 -87 -87
70 -20 -20
-12 -18 36
47 77 57
69 119 127
52 51 20
-20 -18 -4
-20 -29 -29
-5 -1 18
-29 -53 -53
-46 -103 -103
-34 -67 -27
3 8 12
24 -4 -54
13 -7 12
-12 -9 -17
107 -109 -109
127 33 12
6 -1 -1
23 -11 -11
0 8 -26
32 16 -10
-46 -44 22
37 18 0
57 11 14
-127 -68 -68
59 30 24
20 12 12
-56 -31 -31
27 15 21
47 111 -14
49 127 55
-55 46 -30
96 74 13
24 38 38
-65 14 -57
3 -20 -20
52 83 83
8 83 67
-51 28 26
-1 57 -27
-2 -27 -1
-116 127 -18
-69 103 103
-14 -32 -86
-18 10 10
-5 10 10
-3 5 -16
9 0 4
5 -5 -2
0 -1 -5
0 -7 -2
-1 -6 -6
1 -2 -5
-6 -11 -11
-9 -14 -14
-6 -8 -8
-9 4 100
-8 3 32
3 0 -16
-17 -9 127
3 -3 -3
2 -7 -11
0 6 6
0 4 4
-3 -3 9
-1 10 8
-6 -14 -6
6 3 -1
4 120 127
-1 -117 -117
3 -7 -8
-3 5 5
-2 -4 -4
4 -1 -2
0 0 0
0 0 0
0 0 0
0 0 0
0 0 0
0 0 0
0 0 0
0 0 0
0 0 0
bias 32
1677 63559 61158 7062 59500 2616 232 12062 50276 19055 65417 -1073741952 203435 66102 -9589 1711 -1073741824 36997 1552 12244 3018 2607 26657 3402 8813 27610 -1391 1836 -1073741824 -10458 3273 -1073741824
depthwiseconv2d 1 1 relu6
weight 1 3 3 32
-17 21 -3
-12 127 -8
-10 -6 -11
-77 -11 87
-127 5 121
1 1 1
-82 -104 -4
3 -19 -7
77 127 10
28 5 -6
-38 -127 59
26 -16 7
1 127 -11
-44 2 8
-19 -64 3
14 14 -16
3 -127 4
2 5 10
-3 7 -10
-19 -127 -8
-1 -32 -10
11 -19 9
-6 127 -32
-12 18 -5
-3 7 -3
2 127 11
1 -8 0
2 -1 -2
-1 50 -127
0 4 3
-4 25 -21
-21 127 -22
-3 0 1
0 0 0
11 0 0
11 5 0
12 1 -14
-127 60 58
-2 5 -2
-11 127 20
-12 -67 -37
10 -22 4
1 -20 -1
-13 127 -23
-2 15 -2
-5 -10 -4
9 127 0
-11 -3 -8
0 0 0
0 0 0
0 0 0
127 -116 -13
-48 28 17
-6 12 -2
4 43 -17
-43 -127 73
1 -90 37
2 23 -17
-1 -127 34
6 -4 6
-7 38 -9
10 127 -8
1 0 -10
-17 127 -22
-10 14 -9
-4 0 -5
3 1 1
-2 127 6
3 13 0
-24 -4 7
15 127 -54
-19 16 -13
8 -127 7
11 32 -2
1 18 -5
11 114 -122
-17 -95 127
3 -24 21
2 -63 0
-77 -127 -56
13 -30 19
0 -2 -20
-20 127 7
-2 -1 -7
16 33 -16
16 82 33
8 -8 0
-38 -26 7
127 33 -23
20 21 -16
2 -8 6
11 -127 13
8 7 5
6 -5 0
-6 50 2
0 3 0
bias 32
-2982 1894 1463 16436 666 21992 11369 -128 -8536 17894 -1503 -1073741760 5339 4368 -73 -1567 -1073741824 1000 28469 17506 -1278 -657 -1094 150 18102 4211 9502 -242 -1073741824 18 21659 -1073741760
conv2d 1 1 none
weight 16 1 1 32
-4
-4
11
-10
8
4
-24
5
79
27
-22
0
-4
-50
31
6
0
16
-4
0
10
29
25
4
3
127
-40
-28
0
11
-15
0
9
-1
-1
45
1
21
19
5
114
103
27
0
-51
-13
-116
-34
0
-24
39
2
16
17
95
-34
33
25
12
-3
0
-127
2
0
29
-21
-3
105
-37
34
-66
-53
-21
32
59
0
-52
-57
98
-26
0
-24
-94
12
13
56
-53
127
32
-63
-56
40
0
24
13
0
29
32
54
-3
-7
-20
-42
9
93
-118
82
0
-56
127
73
-15
0
11
7
26
-13
-50
34
-4
-21
13
-21
1
0
-46
71
0
-2
-2
-2
-12
19
-4
-9
-6
-32
96
14
0
-9
-43
32
-12
0
-9
-3
7
-6
12
127
4
-15
-4
1
-10
0
8
53
0
-5
90
-3
4
5
23
15
-21
-50
86
-123
0
-127
-25
-43
30
0
-14
-39
-21
25
4
-78
-1
-35
0
2
-16
0
33
-27
0
-5
1
4
-2
-9
1
0
-1
127
67
-38
0
35
10
10
-14
0
-1
-3
-1
-3
-2
51
4
-4
-58
-3
-7
0
10
-22
0
-5
33
-63
3
-7
13
-34
29
92
-82
127
0
11
-106
59
-28
0
-4
41
51
-24
-7
22
14
-16
3
-15
16
0
-34
-18
0
23
-6
3
-127
-69
36
-7
102
-25
-17
-77
0
-16
-3
3
18
0
-30
91
9
32
-6
2
-82
-17
1
-22
-7
0
35
19
0
14
-17
-3
-21
127
-21
-25
-30
119
7
-75
0
-52
92
52
3
0
-64
-49
-9
5
-60
-71
-14
14
76
-2
-18
0
24
-38
0
-28
-11
0
-3
-35
-8
7
2
76
93
127
0
-73
10
10
13
0
1
7
1
-15
-29
-50
28
-34
31
-4
-9
0
34
-33
0
-1
-2
-7
-54
-14
-6
-16
-44
13
-53
85
0
11
-10
31
-13
0
0
-101
-91
79
0
38
-127
6
-4
-5
5
0
-24
-1
0
9
4
3
98
-127
-23
13
-53
-16
-16
-67
0
13
28
-16
16
0
-24
-58
10
-8
-33
49
66
-3
67
21
-26
0
-9
13
0
18
3
-8
7
-7
43
7
4
-1
105
2
0
31
56
11
-25
0
18
-6
-7
-5
-13
127
26
29
80
6
11
0
41
-12
0
15
-18
0
95
67
127
51
-71
19
-96
18
0
63
-64
-119
63
0
3
-87
-27
-8
-18
79
56
-109
-16
-52
-29
0
65
43
0
-8
22
-6
-2
1
18
1
2
-11
-127
61
0
-108
31
40
71
0
-15
19
-7
-30
27
123
21
58
-92
7
-5
0
17
-17
0
bias 16
-24401 -58847 9063 -34909 -19538 49809 -16038 -18105 19521 17494 -3700 45869 9659 -59490 -9704 -5918
conv2d 1 1 relu6
weight 96 1 1 16
28
59
-31
-33
49
-45
127
7
23
21
-28
1
25
84
55
-20
51
62
13
-45
45
77
37
63
-15
-44
87
18
-67
-44
64
127
-7
-6
44
-11
-2
39
-8
-52
-76
18
-1
127
27
1
46
-13
37
-38
45
-3
-31
-1
35
33
127
41
-20
-110
-36
24
-63
28
36
0
-12
-56
-18
52
18
74
19
-64
21
13
-41
-49
127
96
83
6
-81
7
-94
8
29
29
-41
83
127
6
24
1
-24
-50
-125
1
-19
91
57
38
-94
-3
85
31
82
-45
69
86
127
9
1
8
-70
-21
-6
18
-10
-30
118
-14
-7
127
-56
-4
-40
-23
-14
-3
58
-127
-13
-86
-12
93
57
-63
24
40
77
-14
-16
-51
15
-77
-14
-121
-40
-127
13
14
-45
-39
-82
-93
26
-13
65
-127
28
47
27
-73
123
-11
22
14
20
42
10
28
35
-127
-68
13
41
13
-75
-51
18
-28
30
-70
-30
-47
63
5
-16
14
46
127
-2
-1
-37
-5
1
7
-10
-30
78
-7
3
127
-37
0
-23
-3
22
2
15
-127
-9
31
17
100
-17
-17
4
12
-26
-3
-3
69
5
2
-11
6
-2
-22
7
29
30
-3
3
-127
-17
1
-21
13
-15
-2
-15
127
1
-5
8
-117
17
36
11
-17
38
21
-28
-24
15
25
-5
37
11
127
-1
31
16
6
14
-2
4
-6
17
91
2
-34
22
3
17
-24
13
30
-51
13
14
-127
20
13
0
37
-105
-121
-72
50
15
1
-127
-14
-4
-75
83
-19
1
-71
78
-10
-18
-1
19
-127
-1
-83
-18
81
-42
-4
1
11
-66
0
-4
-59
13
-4
-56
127
26
43
0
-88
-54
102
-41
-12
-127
-9
55
-14
-3
10
-81
-19
-4
12
-11
-33
127
-13
-6
112
-70
-2
-49
-16
-11
-18
18
-127
7
-87
-28
90
-6
20
-1
9
-34
-18
28
-62
127
38
85
31
-43
53
99
-31
-52
6
-81
11
-47
13
-125
-6
81
-127
83
112
112
-82
80
83
36
53
36
97
-18
50
-43
94
-38
-53
-62
98
30
-127
1
-74
-26
9
-74
5
83
23
-51
-90
-7
-8
87
-5
2
32
12
-33
-127
19
4
44
62
0
56
-2
7
5
2
-67
14
116
10
127
9
-11
13
8
-14
-25
21
84
8
6
-81
-10
3
17
-13
-37
94
14
-19
127
-106
-7
-37
-18
5
18
82
34
-44
50
74
-5
-108
-46
48
4
-116
-2
-127
-66
-45
-8
13
76
3
-20
-37
-45
-21
76
-28
-8
44
36
-127
-110
37
23
11
-39
4
127
26
-37
125
-38
36
-12
-53
-46
-2
-117
-74
-66
35
13
-74
26
-118
-48
-42
-3
-4
-6
-15
-85
-127
67
5
0
15
19
0
-27
10
39
-5
-5
8
-127
4
-3
-5
12
39
39
13
-127
-12
95
-5
126
-27
-11
48
12
-46
-10
6
119
-8
-8
15
-25
6
34
-5
-55
-59
9
0
127
30
10
29
-1
23
-17
-39
-52
-77
-12
-3
-42
-2
-27
40
-10
-26
47
79
127
-95
-49
-67
-127
111
53
-44
-124
-10
-21
56
8
1
74
-56
-9
11
-104
100
-66
4
127
-6
-82
41
27
52
-40
-58
30
-64
13
-50
-56
-55
103
-62
-24
-27
-51
-35
-57
-40
-26
3
127
-6
-100
68
85
67
-84
17
82
28
41
40
40
80
21
-45
-91
21
127
10
-1
-51
7
-6
-31
4
33
127
-15
2
-45
-66
-7
-54
10
55
36
-33
-15
24
-24
19
-16
74
79
-82
-5
127
25
63
65
-2
-53
56
124
49
-109
-45
127
-11
-7
66
79
-40
-1
8
63
-1
-8
11
-57
-8
-127
-22
-40
9
16
12
-3
8
-5
7
-45
49
52
-46
32
127
-2
99
44
4
-69
57
2
-28
63
62
-102
33
79
-13
6
97
-2
127
29
2
13
22
3
13
91
17
-55
45
19
-17
-60
-7
60
21
41
-8
-56
66
-14
-53
-15
104
127
1
-3
2
79
-4
-79
4
-127
0
-7
-1
-14
3
10
-9
-55
-12
-73
26
5
-13
-14
-63
58
-37
-52
32
2
-45
-99
-4
-127
-18
-16
7
-46
-4
-127
16
-27
-18
-5
-16
3
-7
14
-23
-85
7
-5
-29
127
18
70
-1
-61
60
5
-22
-15
59
6
43
40
42
8
46
-127
-19
-122
17
86
-26
-25
18
32
-71
-52
-35
-82
9
-127
-53
26
-33
-26
-80
15
45
-48
-30
3
32
-125
111
-37
4
3
-34
45
3
127
5
58
-8
-10
-23
2
14
11
-6
45
-53
1
36
-70
127
-10
-77
-38
30
-84
-122
-14
14
63
11
70
4
-6
29
-127
0
-77
-12
89
-15
-5
23
17
-25
-7
-2
-58
-33
11
-59
113
65
114
-54
-56
127
68
22
-51
117
22
79
96
11
8
-23
15
-12
-27
11
45
127
-3
0
-69
-64
-6
-52
-1
-24
-1
-17
5
-2
-8
20
-44
42
-64
22
3
127
38
-49
54
36
-94
-62
-66
-127
-32
-18
0
7
-46
-84
-20
22
-31
110
113
-100
-16
29
-127
-23
-106
-23
80
-40
-48
114
34
-116
-27
10
-94
-13
67
16
127
40
23
16
38
-27
20
46
25
-24
32
-90
123
-4
18
85
25
-8
-7
10
28
-126
6
8
-127
59
-5
52
-2
1
3
47
-1
-27
-2
17
14
67
-107
43
14
127
1
-36
-9
-24
-57
19
-51
-127
-2
-90
-17
25
50
-67
-6
22
-41
-21
101
-7
32
21
50
127
29
29
28
-7
3
-8
-1
18
-31
-56
-119
19
-118
-68
21
-47
2
-58
33
46
-42
-77
3
48
-121
127
-31
38
-127
76
-1
25
37
9
-7
25
40
31
2
-15
27
-14
3
0
-14
-71
127
23
80
-11
-79
80
67
-23
-14
79
-12
39
72
-9
-6
62
-8
4
27
-1
-29
-127
11
-1
65
67
5
56
-3
-28
-40
35
-1
-127
-18
-60
13
35
56
-49
-4
6
17
6
-7
26
89
-8
-8
110
-12
127
12
1
20
20
8
8
116
-2
-37
-8
-55
-107
84
18
55
-60
-16
88
59
-53
-31
127
-42
120
31
-11
-6
-39
7
127
-43
-68
-30
21
-53
-103
12
38
26
-44
1
106
-11
22
-32
64
-11
23
-10
-67
-30
-127
-10
56
-50
-70
72
6
-1
8
-127
4
-82
-5
71
-18
-2
0
12
-8
-4
-7
-40
0
-11
72
16
1
-7
7
29
-127
13
-2
-69
74
-1
49
6
104
90
41
-48
11
-19
86
21
62
84
-127
0
84
84
5
47
0
0
0
0
0
0
0
0
0
2
0
0
0
0
0
6
-126
-20
3
30
-59
15
127
0
-1
25
25
6
-38
-62
11
-13
12
18
59
-10
109
-16
-127
-17
32
-81
-100
-11
-15
67
40
37
27
-55
-39
-25
-20
-123
12
-114
-2
3
-46
-21
33
29
-17
-127
-2
-19
-70
114
15
56
-8
-36
72
90
-48
-30
127
-8
91
86
3
-9
59
14
4
-21
14
37
-60
13
15
-127
41
9
16
11
-10
39
70
-41
20
-29
18
7
-80
-22
51
22
-73
42
-127
-14
127
59
44
90
-108
-15
52
92
-50
22
-63
7
33
-63
-7
54
1
-9
-34
-16
4
20
-1
-32
65
2
-4
127
-40
-1
-20
-8
-108
23
34
-2
-65
62
-41
-3
25
-10
127
-2
-61
83
85
-60
-3
-14
63
-5
12
13
0
-22
-127
17
-3
44
68
1
53
7
4
8
-20
-5
-12
26
2
-32
52
-1
-7
127
-32
-6
-3
-26
69
67
-35
-7
127
28
82
-15
-16
-72
111
24
-45
-29
47
64
0
-18
-10
18
-30
-84
25
-127
11
21
-14
-24
4
50
-16
-12
-127
-23
51
-38
70
-11
83
-41
27
-53
-115
-5
-24
-84
7
85
-45
-81
-32
-45
-119
-8
-93
-42
-2
26
-127
0
40
19
-53
30
-2
4
-57
-10
0
8
-6
-9
83
-22
-9
127
-16
-5
-28
-17
bias 96
-215 15113 8166 -3330 9389 -119 12445 10390 2209 11857 5037 7676 7642 3 6628 5755 4342 -645 10805 3505 -42 17616 2195 9679 -8839 14527 1752 2604 14864 10938 8858 -5301 -365 -34 11709 938 6693 -6616 -5034 6559 14411 33 11280 6829 189 6656 9269 9645 620 8729 -110 -9 15687 18188 361 26654 3934 18170 -3137 -35 5918 14898 9916 663 618 9154 5886 5874 917 14641 8123 7837 11494 14183 8638 9962 621 6859 10577 -1073741824 -85 -282 8485 16403 949 8869 -4112 780 13212 -2687 247 10613 5307 -174 17166 4853
depthwiseconv2d 1 2 relu6
weight 1 3 3 96
54 104 56
73 127 73
28 62 18
53 -127 38
-113 63 73
11 93 -91
-122 62 38
-127 59 82
6 -19 18
95 127 43
47 87 21
-47 -38 -37
-43 28 42
-127 87 22
-91 77 4
67 102 30
113 127 29
57 75 19
38 65 23
-60 -127 -68
12 67 39
-66 -91 23
-108 -16 127
-15 75 70
-2 123 127
-82 -13 95
-94 -111 -4
2 -91 75
3 -115 127
2 -49 41
-35 22 20
127 49 -37
-109 -89 19
47 -74 26
-69 127 -58
24 -57 33
98 -89 -3
126 -127 -7
31 -24 -7
66 61 20
99 127 44
55 53 21
-127 -95 8
-43 60 61
45 74 16
-20 25 -6
66 119 24
81 127 33
76 68 53
127 111 94
42 49 25
-54 -37 -6
-62 -127 -80
-30 -60 -10
-36 -1 17
-8 127 -100
40 -118 83
-3 103 127
-107 -8 82
-113 -98 -4
-61 -68 -24
-100 -127 -53
-24 -70 -35
-36 105 108
-127 -83 60
-15 -30 15
11 -82 -127
111 30 -89
80 75 -20
-89 44 26
127 -71 -43
-41 27 18
55 91 55
75 127 77
41 65 41
-30 -89 -50
-66 -57 -10
106 127 54
62 85 37
88 127 55
21 17 5
127 68 -14
81 -21 -88
8 -74 -100
46 -28 -52
-52 127 7
-26 -51 30
60 -83 20
-79 127 -44
23 -45 24
2 -91 100
-16 -109 127
-11 -37 37
23 -16 -6
75 86 54
70 127 82
55 94 56
77 127 80
33 49 48
73 127 86
107 119 49
29 9 8
-68 -97 -45
-83 -127 -67
-28 -61 -10
-50 -74 -3
-45 -127 -42
1 -10 -26
-3 -28 37
127 -82 -39
-124 99 10
-116 -103 -2
-127 -110 -18
-20 -7 -20
-26 58 40
-32 127 57
0 52 24
-49 -55 9
78 127 34
-16 -79 -37
-50 -127 -73
41 99 76
27 7 -10
-51 -110 -18
-64 -127 -56
-13 2 -16
-31 45 -18
17 85 -90
3 -127 113
127 108 9
103 96 3
-2 1 -14
-44 -60 -37
-62 -127 -66
-26 -26 -27
50 102 3
-89 37 79
-19 -127 -28
3 19 10
-83 -127 -50
54 77 28
-127 59 59
32 83 -66
88 -101 3
-55 -76 -32
-64 -127 -62
-28 -67 -30
36 -59 29
51 -127 89
18 -63 51
37 86 39
47 127 56
37 62 46
55 68 22
85 127 60
21 57 33
-63 -98 -43
-30 -23 -24
81 127 77
-30 -28 35
-119 127 -8
-28 87 -56
-65 -61 -62
-83 -127 -77
-36 -41 -31
-23 65 -53
-38 127 -81
-17 53 -35
30 100 37
83 127 65
41 79 19
-91 -127 -31
120 125 8
-41 2 30
58 122 5
52 127 38
-2 -37 8
69 68 21
80 127 66
17 52 47
60 -99 43
85 -127 49
30 -46 6
-53 -57 71
127 -12 -95
-63 55 20
-93 38 61
-127 31 98
-36 -7 42
-86 -127 -96
-101 -89 -80
-75 -71 -21
45 127 50
-43 -5 29
-84 -115 -11
-117 71 38
-44 -127 63
66 -42 -39
21 -120 99
-35 127 -92
-1 -1 2
-32 127 -77
39 85 -89
51 -20 -27
46 103 60
53 127 80
20 42 20
-73 23 70
-40 -127 -56
123 71 -18
66 103 -11
-28 85 41
-92 -127 -36
28 -29 -5
-106 127 -14
74 -85 14
-127 -95 -18
89 110 39
18 -19 -18
98 -122 19
54 28 -67
-95 127 -27
-56 -79 -53
69 127 38
-19 -17 -14
24 54 20
-94 -127 -82
53 106 45
-25 -75 -39
-49 -127 -57
-38 -62 -30
-89 -99 -40
36 127 61
16 3 -14
70 -110 45
-86 127 -47
16 -18 2
0 0 0
2 0 0
0 0 0
-85 -89 -4
-108 -127 -35
-46 -83 -44
63 57 22
113 127 50
41 43 6
-71 66 3
-78 127 -39
-13 90 -76
23 -73 43
77 -127 59
41 -54 7
62 127 41
-75 28 47
-38 -116 -33
89 -61 -2
127 -39 -69
55 -16 -61
127 103 -60
126 122 -76
-9 38 -6
71 127 71
88 127 85
12 30 0
-73 -93 -58
-20 -32 -12
89 127 69
70 127 53
19 89 32
-88 -115 -50
-66 -101 -69
-127 -107 -75
-66 -87 -17
-1 116 -127
-33 -70 99
36 -46 25
125 97 32
50 -12 -87
-19 -95 -127
-35 -57 -37
-88 -127 -45
-72 -56 -5
-18 69 -47
-85 127 -51
-33 34 -4
-124 15 41
-8 127 -30
63 -29 -50
bias 96
207 43 210 -26416 267 370 1368 212 116002 541 2737 137 151 965 -54 -45920 -56846 53272 -485 9266 103813 514 9031 168 47905 1721 -15248 14429 -139 -265 -232 -37418 185 11281 68443 28999 374 23900 -27660 -1054 1158 46443 344 13871 38367 -613 7109 -2618 50273 -2486 431 322 -303 2001 48157 154 -43594 718 42143 487 -153 672 -695 30061 77850 12270 11 -4437 16656 2936 1573 -369 2054 -1582 386 262 41604 -222 117 -1073741760 52168 225 -944 512 -324 -2230 3 -18178 197 6480 41083 153 6467 59430 1160 -562
conv2d 1 1 none 1
weight 24 1 1 96
10
39
6
3
14
-126
-28
2
-16
32
0
-14
45
55
-35
-22
46
19
82
-48
23
33
26
74
25
-5
13
5
4
117
10
11
8
9
-44
3
-3
-12
9
-22
-9
-6
95
35
-12
-61
-58
42
80
91
90
46
-1
63
-25
-71
8
-7
-2
-30
55
102
38
21
6
-40
2
45
57
51
7
-19
-50
127
42
-11
-59
-33
81
0
34
-116
10
112
0
96
-4
81
-17
28
-2
7
-10
73
36
-25
-7
14
5
3
1
-89
-123
-7
-2
23
-20
-9
4
21
7
39
27
4
-7
20
-13
2
-8
-46
16
-22
5
9
9
-28
1
-4
-6
2
34
1
-8
-7
8
-43
-57
7
-8
13
-19
28
36
11
-43
-27
42
26
-22
-7
-18
28
4
-67
-3
1
-23
-34
19
3
-13
23
0
-14
27
-7
-7
6
38
2
-83
-127
35
-26
-21
0
36
-104
20
-12
-6
-3
0
8
-35
-3
-1
6
28
17
-13
13
108
6
-16
4
73
9
-1
-14
-19
-20
-33
62
32
-17
-9
-10
20
39
35
27
-27
34
-16
24
10
-75
63
-32
16
45
66
-7
110
10
37
-23
32
-6
10
-76
-81
14
20
-8
40
59
29
7
-25
36
-18
25
-29
47
-1
-23
-18
2
-22
20
127
-4
-13
-6
-25
52
58
37
32
-32
-19
60
29
9
-53
-33
74
-19
39
0
-11
36
-1
16
-9
2
-21
88
-48
-9
-35
46
4
56
99
13
-12
16
58
-1
115
-84
16
-14
-91
19
-29
-32
-8
-18
91
-66
-7
-52
-41
-14
49
-6
-24
-9
-79
-52
17
28
23
-39
113
-9
10
31
-29
16
-26
42
-42
-80
-69
-16
-25
-29
-30
5
-35
16
41
-6
-6
-68
0
-47
25
-47
-16
31
26
0
102
1
-8
-19
-104
35
-13
3
-105
-12
-1
-27
-40
-43
-14
-17
-67
-25
-39
0
-24
-45
76
-39
-47
-12
-45
-65
-37
-45
24
16
-26
52
127
30
10
-4
11
9
11
11
0
-4
6
-7
2
2
-4
12
7
1
10
-5
-2
3
-9
3
-10
0
8
-8
-73
2
1
-1
-1
11
3
22
-22
52
2
22
-21
-4
3
-80
0
127
25
4
-1
1
24
2
-3
23
3
0
-36
-3
-31
-1
49
2
5
-2
0
20
-14
-4
3
6
-18
-9
0
1
-1
-1
-5
3
34
-7
-1
0
4
7
-5
-3
-4
-8
7
-7
-1
-29
-3
0
-16
4
-3
2
8
37
-35
7
-17
-49
-9
-34
14
-44
11
2
-36
20
-21
20
-119
8
-5
15
-20
-14
-21
-7
5
33
12
-42
-6
-3
1
2
0
7
-13
2
10
-5
0
7
18
-2
9
-12
34
4
-3
25
13
27
-127
3
24
5
26
-31
4
1
3
13
15
16
-48
5
7
10
8
15
-3
26
-6
8
-4
27
32
17
-16
16
-14
0
30
-56
-11
17
18
-18
13
11
24
-1
-4
17
16
5
14
-16
-63
91
16
8
68
31
37
17
-44
33
66
37
-13
32
33
34
17
31
-87
1
-1
-23
-11
-42
86
60
8
37
-13
-92
67
-11
-51
-9
27
-18
44
-44
24
86
68
32
-58
48
7
-27
-50
96
-6
-27
8
21
41
-72
-20
-20
20
25
-16
11
22
-11
20
4
-55
-3
47
-17
127
19
1
36
-59
-51
68
66
18
33
-86
0
32
-21
66
-49
-19
-10
21
40
43
20
-17
57
-18
-61
59
31
-7
1
2
-17
7
1
-1
6
9
-7
0
10
-1
12
1
-12
2
-20
-2
-10
-4
-2
4
1
-27
-3
127
0
-12
1
-5
-27
-6
3
-38
-53
7
35
-28
-4
9
100
-2
123
36
-1
0
6
40
-5
-4
24
7
-7
-38
-2
-31
-1
-57
7
-6
-1
-2
-50
15
-7
10
-3
-53
-4
-1
10
-1
-4
3
4
33
-1
0
0
15
-9
-7
-14
8
-16
0
15
2
33
8
5
-17
8
-10
-1
0
-62
28
0
-73
-33
51
-107
-45
-26
-27
-66
-92
64
55
74
-71
-7
99
85
4
24
-43
96
38
32
7
-5
52
127
-64
-11
-13
-1
62
3
-51
-10
5
-34
-20
30
88
8
33
7
24
-66
-54
25
-63
79
70
43
30
1
18
93
-6
17
-53
101
-34
-21
-99
-17
-63
-1
53
108
32
-58
31
99
24
52
38
-8
103
0
-84
62
-52
35
5
-32
4
-18
44
3
1
-63
-21
61
-67
-47
-82
46
-22
-7
0
-16
6
1
19
-4
41
6
-2
48
-12
37
-37
-30
-5
-6
-59
6
2
13
-83
31
10
-24
-9
1
-5
0
-60
8
42
23
19
36
-25
60
45
-24
12
-49
-7
-52
-53
42
-77
29
43
78
9
-20
9
-30
-23
8
5
23
-7
35
-27
-9
19
-48
17
3
-127
39
-21
-4
-51
38
64
40
61
13
-11
0
47
-49
6
33
3
32
-45
-34
29
-56
12
18
-14
3
3
-11
-71
85
17
-2
50
-70
-7
37
32
-16
-24
42
32
53
16
3
-38
30
23
-2
-87
14
6
61
3
-52
-48
21
44
58
61
-7
-53
-32
-35
-26
33
-14
0
-82
-82
-7
32
-6
-28
21
33
81
6
-88
0
-11
56
-87
-27
43
-12
89
7
63
-12
85
-19
-13
61
30
53
-73
-21
127
8
67
26
40
-38
-18
-12
62
28
0
-63
-4
59
-111
61
-88
28
-54
-6
17
-32
63
-23
25
23
62
-44
-15
7
9
-7
-8
24
-7
-33
-19
-11
-6
-15
-1
18
-8
-3
36
-4
-7
-20
-5
1
8
-34
-11
57
-7
7
-1
-11
14
-34
39
3
0
-5
-2
-7
-15
-9
-39
-9
-35
20
-5
-6
-16
7
-35
-19
-24
19
-37
7
-2
3
26
17
19
-30
3
-14
16
-31
-7
-6
-30
-29
4
-1
-5
-6
-25
9
13
8
12
0
0
-11
6
-16
-55
-4
-37
-24
127
3
10
-45
-7
2
13
-17
7
-52
-27
6
6
-54
-1
3
-109
-12
14
-14
-22
13
-92
-41
-51
0
27
-3
23
-76
127
44
7
12
-53
3
6
55
-4
-39
-11
-44
-11
-90
-17
-19
-6
4
-34
-36
5
3
2
2
-31
-29
-43
20
5
18
43
13
-5
-10
21
87
21
1
73
-51
19
29
-10
-7
-33
-27
-4
15
34
-15
-30
-26
13
-35
-17
-5
-79
-3
0
-48
24
-26
27
40
57
6
-17
-31
-13
-24
-20
-57
-9
-43
-32
-59
120
6
7
-96
39
-80
-54
-88
-54
71
115
-51
34
33
11
-19
-15
89
-97
12
-36
68
53
-5
-13
-9
-48
52
117
-93
-9
-69
-3
8
13
97
-47
-27
62
20
-1
77
49
-8
22
46
96
0
-4
-8
-21
-19
9
5
21
40
-61
14
20
-96
48
-6
-3
-48
1
103
-64
0
-39
-19
127
49
45
-45
-79
-31
-3
91
0
-1
-44
-74
-24
-12
-30
-44
-49
-30
-45
7
94
53
-95
-69
24
-87
30
-7
2
-51
48
-47
11
5
-30
48
45
-39
52
-6
-13
30
9
42
61
24
-30
-102
25
1
-16
39
29
-8
50
-38
-3
-77
29
4
-1
47
33
4
26
-8
7
37
-19
3
-45
-40
31
33
-37
94
-30
-127
-28
25
53
-99
-35
-8
-12
-78
11
-47
-2
-21
-49
33
-46
6
-14
-2
31
-33
40
-43
-39
-13
-9
31
0
11
52
-44
-29
-23
-31
23
44
-68
9
-1
24
-34
-15
-66
-2
6
6
-6
-20
0
5
-3
-13
-27
4
6
1
-13
2
-11
9
-2
50
-1
15
29
-5
-14
-1
-8
6
-52
0
-6
-1
1
-3
5
-127
-6
-51
2
6
-9
6
2
21
2
21
-4
2
0
5
1
4
6
19
-3
4
-6
-1
-3
-1
-33
-26
0
2
0
34
-39
-1
2
4
-39
2
1
1
0
6
-2
0
-3
-12
-1
0
0
1
4
8
-25
1
-8
-11
3
-1
-54
2
-2
-5
-1
-9
-77
2
77
4
26
31
-35
-12
-13
-9
-34
37
-42
-80
56
54
-63
-2
28
-28
16
-40
26
2
-34
-16
-26
-75
-42
16
8
21
-81
-8
3
-11
5
-30
-11
-14
-15
1
31
14
-2
-14
-19
-27
-49
39
-85
7
54
-15
-18
-56
26
-48
25
4
-9
-21
17
-23
-7
-19
37
-17
-43
-44
127
30
-18
-6
-44
-46
44
-37
14
0
-14
14
5
29
70
67
52
-10
4
127
-38
39
33
-50
42
-41
-13
-59
-87
12
53
92
9
18
32
61
-50
26
-8
81
-83
-24
-82
-3
34
16
14
-36
26
28
33
54
63
125
-58
27
67
-10
-5
38
-34
27
-13
-15
0
-33
-4
-4
0
-23
-29
61
64
-26
33
-26
18
34
59
-5
-29
21
-60
14
7
-6
-4
-28
37
42
-13
23
20
-30
21
24
-101
32
58
-31
-39
-4
-30
-14
50
0
-49
127
92
-7
-62
-5
21
51
36
-86
10
-4
-53
-16
25
-22
25
10
-4
2
2
-33
22
28
7
0
3
30
4
-70
8
22
58
13
23
11
-42
-9
-13
24
9
33
-27
14
-23
38
14
-12
17
-19
28
-12
20
18
17
9
22
0
23
4
25
-4
-9
5
8
7
-64
-127
48
17
24
-31
53
13
2
57
16
18
11
-15
-2
1
23
3
7
16
-12
23
-9
21
44
35
-6
14
26
0
23
-22
-10
10
16
20
8
-35
22
-10
-15
20
-9
9
14
-3
69
42
25
-2
-50
14
-41
-54
-18
-18
25
127
5
-55
-7
10
-63
-1
-4
55
-24
54
-19
-29
-30
21
30
47
-13
-7
-6
14
68
40
-85
12
88
46
-7
26
26
-34
-12
-21
-4
27
28
45
0
47
-10
60
-21
66
44
-9
85
-73
22
15
34
-49
-34
-9
-27
19
102
37
-49
-30
31
115
25
7
8
-16
-39
-42
-2
0
97
-39
-40
56
22
38
-2
54
-9
26
-19
69
-124
-28
8
-19
-23
19
-65
-12
39
-22
70
-81
34
-62
-24
94
-50
-33
-104
27
30
-62
15
-30
118
13
34
47
5
-80
-28
6
-53
41
48
20
-8
-11
28
46
59
13
2
-74
-75
12
5
-12
33
-4
-38
21
-14
-61
37
103
55
-61
37
-30
29
68
-14
-122
35
18
-61
28
28
5
82
-49
22
32
17
82
-40
-37
11
37
33
-77
28
0
-24
26
-33
-127
-28
-69
1
-33
-28
1
83
69
-72
74
50
-81
0
-11
-11
1
7
-5
16
4
1
-18
-6
-7
3
0
2
8
-29
14
3
-14
-18
-2
-3
8
21
-13
20
-2
5
4
-1
-7
-2
5
34
-8
-7
1
-14
-8
-7
3
1
127
-39
4
-2
-13
-50
0
5
-23
11
-5
65
-3
5
7
-2
13
9
0
-24
-3
10
4
-7
-4
3
-5
-5
-8
-2
-7
5
13
-32
16
4
0
-11
8
1
-4
10
0
15
32
4
9
-16
-5
-11
13
10
8
-20
-34
-11
-7
-43
13
-6
26
-32
-57
6
14
-5
76
-3
21
-52
3
34
-90
-31
-26
72
9
-2
23
-11
127
19
33
8
0
-11
-9
49
-13
10
-10
-6
-7
-9
2
21
-21
36
-8
-22
-24
7
32
-41
6
-11
14
15
-40
-21
-54
0
19
18
-12
-53
1
19
-17
3
8
-20
-84
4
0
-16
-9
8
0
34
50
32
0
20
12
-53
-2
16
-5
3
-10
-19
17
0
-5
-66
10
0
15
-2
47
19
3
11
-19
3
29
-9
37
26
7
33
-127
8
-55
2
-11
13
-25
58
-14
5
31
8
2
15
16
3
40
17
3
-14
9
-34
6
12
-7
3
43
19
-3
32
0
-27
-38
-37
41
-45
22
5
-45
-28
5
-21
-16
-95
27
7
-42
11
60
28
5
-4
-21
9
7
14
24
-2
0
-36
44
14
-6
50
-8
18
0
-3
-25
42
38
-34
23
6
21
-10
6
2
17
-28
-15
18
20
bias 24
-49682 -687 -16648 32809 -13681 -759 -11089 -9049 -3040 9738 4079 18691 31991 36972 1402 13477 16489 -3885 -6258 -14332 -35907 -8377 1600 -1832
conv2d 1 1 relu6
weight 144 1 1 24
-20
14
3
43
-8
21
10
3
-5
-127
-17
95
13
15
28
-73
77
-67
-8
19
-17
21
28
62
-45
-19
-13
14
-16
87
-14
39
-15
-30
-35
127
18
-20
39
-99
62
51
-21
6
-21
33
11
19
-14
-8
-12
31
45
-5
-18
-20
3
19
8
-25
3
15
-2
-127
-17
-8
8
10
-7
-10
-2
1
11
-61
73
-6
6
-120
-23
66
18
86
33
117
-45
30
-41
-127
-1
63
22
102
-97
8
-50
-47
-35
127
-63
-6
12
36
52
-5
-26
29
-12
-3
-5
-73
82
12
-39
-53
-21
-6
19
-16
-33
-70
-14
29
-35
-35
96
38
35
86
14
-23
18
41
29
-18
36
3
46
24
21
-74
4
-127
28
-6
-95
-1
-69
27
8
3
-18
9
68
-91
124
118
64
-30
27
-11
-127
-85
-51
-112
103
25
13
18
5
1
31
-2
-19
-79
113
-45
-78
53
-7
-42
-127
29
36
5
-8
-13
51
-6
-14
-4
-4
13
76
11
22
9
-2
-122
64
13
14
127
-25
11
-17
-5
2
6
-7
-10
-26
-15
22
-10
-25
-93
-65
44
32
-8
-73
-44
-15
-87
36
78
-20
-10
-10
-1
-13
-23
30
-12
-6
22
16
127
-7
54
70
-127
-17
54
-9
37
12
18
95
39
110
71
12
-38
-38
-5
-4
42
84
-41
113
30
-24
66
44
35
-9
-35
-3
-17
-26
10
45
29
3
25
127
6
-50
-1
35
-21
40
65
56
-21
-53
-68
28
52
-7
-25
-4
14
-54
6
-39
-23
-59
29
39
59
-35
0
-36
-127
30
-27
15
-6
-115
2
35
-15
-42
-6
45
50
-13
88
3
-42
-10
28
18
3
22
-11
0
30
-48
-33
-3
-127
5
-75
40
127
2
37
1
59
-16
-7
-16
-5
19
-12
17
-3
17
1
13
-33
26
-6
-7
3
31
-2
5
-7
60
-9
-77
-17
42
127
13
-11
27
-7
17
-1
9
7
-4
-44
0
0
-68
54
16
-23
-111
87
107
-86
127
37
33
38
72
65
-8
-53
-9
-46
-58
4
15
-75
-27
-45
32
-120
47
99
-3
-1
-34
19
120
0
-5
-127
11
-17
-4
-3
-13
16
-10
-96
6
0
-4
20
12
-21
-7
16
-120
-94
-45
-8
3
101
73
-37
14
47
-50
29
48
-46
108
-6
56
-45
-62
-125
-7
48
87
-127
13
-11
42
2
82
8
-9
-64
-10
21
19
127
-13
9
-14
103
-23
-6
15
38
-59
32
-1
-1
-49
39
-76
37
1
5
17
-6
-18
-21
-92
27
37
-127
-36
1
-23
-38
-29
-61
-13
17
17
-42
16
0
10
0
127
-11
-5
100
-17
-8
22
24
11
0
23
-4
22
1
14
12
-53
122
-10
-16
-1
12
4
20
-12
34
-33
26
-15
-6
-15
127
2
-24
15
-101
18
14
-5
38
-32
13
2
28
-27
-32
-12
12
-19
-9
-119
39
-127
7
100
117
25
28
-66
-35
115
-80
64
-8
-71
38
32
50
19
1
93
-16
-7
29
-79
-37
-10
-5
-49
27
101
54
77
-16
119
-71
25
-127
52
44
-42
-88
-89
6
42
13
15
86
-63
-21
-20
-75
-73
5
83
6
103
11
-32
-127
15
-4
73
27
77
-36
43
120
43
93
39
-84
7
69
-120
-93
-27
35
-127
-67
-8
-59
-56
-3
34
-22
13
21
-51
112
46
28
-29
27
4
81
55
-8
-34
92
-14
21
40
-32
127
-2
44
-94
50
-94
35
7
-102
-9
74
127
6
54
8
-32
-88
54
-34
-45
-41
0
3
-28
-83
1
-110
-92
45
69
24
-17
-45
89
45
-10
58
-71
15
-1
16
-27
-43
-18
35
127
5
-36
6
116
6
-11
-4
16
-57
55
9
-3
97
118
1
-25
-37
-19
51
-48
9
39
-10
127
-8
-58
12
-68
-21
-23
-19
-22
-30
-4
9
-55
32
-79
127
-67
13
-65
43
-26
53
13
44
-96
-14
55
-14
5
-32
17
-44
41
-15
-4
-12
-40
87
11
-47
68
-30
-17
-30
5
-88
-127
-9
-1
2
34
60
-3
-46
-10
-32
-17
17
-8
-23
-62
-54
-70
-8
-12
119
63
-127
-64
36
14
-15
-32
15
52
-29
13
-27
16
38
-56
-46
11
23
-20
76
127
-23
17
-9
-56
-49
21
-39
-12
19
12
6
-10
-15
-4
-6
2
110
32
8
-31
-48
66
83
127
52
-19
14
-113
-23
23
-64
-76
-49
-23
16
-28
-78
3
-107
-58
1
83
16
-26
-82
90
-30
11
-29
-46
36
51
-81
-17
-104
52
13
-45
45
-9
1
-77
-127
42
65
-61
35
26
14
3
-6
64
-88
76
-37
87
-19
-2
-36
35
-57
3
51
-127
53
49
-8
-90
-26
-67
43
-24
46
1
61
61
-127
86
-4
35
89
4
-67
64
-57
62
81
-103
0
-7
-14
-98
23
-99
47
27
110
8
-65
92
19
-66
102
-2
18
115
6
60
-28
59
-16
-35
-34
16
19
5
-70
-26
51
-127
12
30
-2
1
23
15
-89
5
32
127
30
-19
-17
-30
10
10
12
-96
-2
3
-5
-1
-8
22
-9
8
-25
-2
-2
54
9
-16
2
28
29
24
4
-54
8
24
-1
-127
-18
-20
7
7
-18
-10
-2
-12
0
20
0
0
20
0
0
0
0
0
0
20
0
81
0
0
0
-41
81
0
0
0
0
0
109
-73
16
4
-11
-1
-127
30
122
22
29
44
48
-3
-76
34
-44
2
-3
34
93
-1
-9
66
-36
49
-40
44
-15
-31
62
11
-127
-9
-55
72
29
84
-91
-13
42
-28
-8
-32
57
17
114
-10
-108
-116
69
64
74
48
-127
70
-25
-90
56
43
6
34
33
-26
10
-12
28
51
-94
69
23
111
-117
-90
-105
-37
2
36
127
12
-7
72
11
67
-46
49
65
1
-4
-1
-8
-14
45
37
8
-19
27
-125
-5
-18
-1
78
110
6
-49
127
-51
-12
-42
67
93
11
20
-38
46
18
26
5
34
36
-13
28
42
8
16
59
-16
-17
-35
47
-77
-1
37
41
17
26
-127
117
-2
-57
60
5
-7
1
49
-53
24
22
96
100
-3
59
-38
-72
13
-13
67
10
31
7
42
14
-47
-64
-15
-127
-26
-56
-42
13
-22
-14
1
35
43
2
-73
-2
-89
47
-5
86
-10
-3
64
-43
-2
-73
15
19
127
-48
55
2
-55
19
64
30
-18
73
3
-127
35
8
38
-16
7
6
-35
50
-46
-9
-18
-117
50
-36
-30
-127
-27
-32
-8
-28
-17
16
1
-12
-8
45
-10
26
7
3
-50
-28
43
26
50
-6
-17
60
-86
2
24
-22
31
-16
23
-8
41
30
28
-21
30
-68
24
14
-14
-53
60
30
-23
33
16
127
26
-18
127
93
-3
38
83
7
-111
47
74
-14
-62
31
13
-1
38
-2
26
24
94
7
-17
21
0
-14
0
0
-7
-14
0
0
0
14
7
0
0
0
-2
-28
0
14
4
0
0
-4
4
-4
-17
-2
-117
35
-85
26
-13
-70
-33
-57
2
-9
-9
42
84
-2
-10
7
25
31
-26
127
-21
-7
-46
57
2
24
15
17
-21
8
-42
-35
-14
3
-87
11
127
4
-8
-19
25
-49
-9
16
34
31
61
58
-8
-35
-9
-12
-107
-19
90
-15
37
17
127
31
39
-2
53
22
-12
-29
42
8
-4
-19
17
2
-127
38
-91
27
4
-55
-38
-54
20
25
-3
30
33
-2
-11
35
-48
38
16
101
-23
-72
-4
118
-40
72
6
-63
10
59
-127
-45
-51
28
-88
-25
11
23
-96
-63
47
-32
63
4
-37
74
70
-59
118
-90
-26
-35
127
-106
28
-16
-17
-112
0
-9
22
24
22
8
-16
-49
27
-2
2
-76
-107
55
-127
91
-42
124
-114
-26
-49
-28
-32
-41
69
-20
19
110
18
-56
5
-55
69
-77
41
80
77
-41
-57
67
-63
8
-40
-12
-98
-127
-12
0
11
68
-38
1
-60
2
-43
-14
-7
-10
1
58
32
73
-12
-1
20
-2
-30
6
58
-91
11
-55
32
-82
82
13
-127
-31
-16
92
27
-8
21
60
-41
-58
14
-28
-28
64
-49
34
-29
2
82
-38
-24
-7
-20
-127
-29
-43
21
7
-37
24
52
2
-16
31
-55
15
-64
20
0
-77
5
21
-4
-17
24
7
25
3
99
50
-26
-28
-7
127
-24
-9
-89
88
100
-98
99
-29
40
44
44
97
-48
-2
-4
17
-95
10
54
-34
-73
-92
69
-96
68
127
-17
11
-47
43
-91
7
19
-79
19
-37
21
-112
-1
-21
39
32
-100
-4
4
97
-3
127
-14
-5
-50
30
-6
12
-31
-5
-4
-49
30
33
18
-20
-7
-8
-22
23
-10
-31
29
32
-9
127
3
42
-43
15
-42
68
6
55
-4
-20
67
-11
28
-2
62
-91
127
27
-5
-15
37
49
45
77
122
-50
2
-24
9
0
-25
11
-24
-127
-26
25
-2
53
-3
19
-34
32
-21
-12
-10
-12
8
-78
7
4
-44
73
6
-24
54
-32
-6
16
11
-6
19
-29
-1
-73
31
14
-29
4
13
54
22
-11
-25
127
49
1
41
-14
-14
29
10
65
11
19
-68
116
-30
-9
11
-127
20
78
-88
37
24
30
-21
-7
-48
-52
57
41
27
55
-78
4
-27
-96
24
-124
-37
70
-22
72
17
74
20
63
10
-40
-17
127
-46
-46
18
15
-6
44
102
16
-82
45
-10
15
-127
88
34
24
5
12
39
25
47
-6
7
21
19
57
-89
8
0
40
26
9
27
29
54
-15
-5
-12
-37
10
-40
31
-127
-24
-66
-18
-31
33
2
12
46
17
5
-2
19
-14
19
49
-32
-24
-14
-48
10
0
-67
-52
-127
-28
-8
14
70
-93
-85
-61
65
-24
8
22
-27
-40
3
-127
26
-32
28
36
-2
-25
7
36
-36
10
-51
8
9
49
-74
36
-127
-68
5
14
17
15
-29
-17
-31
38
39
68
63
2
-51
-74
-6
2
-25
-13
24
21
-69
127
33
-35
-52
-31
-99
-89
60
32
-48
2
13
3
-43
-9
65
2
-41
-22
54
120
-62
112
90
-52
127
-2
6
-80
55
-26
-9
48
-6
-91
15
-26
-26
-16
88
77
-48
29
-37
11
-38
-53
-37
90
127
92
8
41
-28
-32
-64
-87
74
-32
15
-30
53
-9
11
-38
-57
-62
23
30
42
-15
11
2
-47
-16
108
8
-11
-127
-11
-21
0
-2
-12
-6
-6
18
29
10
-4
0
34
-17
-5
22
93
-7
16
-75
12
14
127
-38
50
-37
-28
-108
-8
-4
-4
7
3
28
-37
-53
45
30
-12
-21
57
-40
-62
93
-46
-6
-65
-13
-74
-81
39
40
21
-6
26
-14
-63
-3
-5
18
-45
-127
-19
-16
-75
-31
-42
73
-39
-18
-84
-47
-13
87
28
-111
0
19
-13
127
-2
-35
33
-29
26
-97
22
-28
18
-22
37
-21
-2
-42
6
-54
1
13
26
-120
-13
12
-25
127
-10
-26
27
-23
17
-31
0
-41
20
-7
-9
4
74
22
24
68
10
-69
22
-12
-1
-45
16
7
-52
29
6
28
14
-127
56
20
-39
116
-37
29
-18
-43
30
14
-127
-69
-64
69
-42
98
-86
-4
-7
-39
-5
-50
59
12
109
10
4
14
25
-28
2
28
-82
-1
-10
-7
-86
54
27
44
-50
-30
42
-103
17
-107
-4
45
-127
-62
34
17
-20
2
-5
21
-17
33
28
38
-97
3
-65
4
10
26
-6
105
-95
12
127
-22
-19
-17
-60
68
86
-68
105
-9
31
65
43
45
-16
-5
6
-30
-46
12
47
-20
21
-64
13
-127
45
57
127
97
39
18
-2
-125
-14
14
-43
42
72
-18
36
35
10
-5
56
21
52
49
10
-39
-82
59
-33
-122
127
21
4
-24
-20
-43
-42
55
71
-66
39
15
82
33
49
-27
-78
-26
-86
3
58
-29
-40
79
-5
-2
7
23
16
6
-52
-37
16
13
-97
93
127
7
0
10
-20
-78
38
27
57
15
15
-42
33
11
44
42
-16
-3
-39
-24
18
6
6
15
-23
4
25
-24
-16
-64
-31
-127
-2
-28
96
127
92
18
21
-57
-40
0
-67
-97
-27
-99
-17
16
-43
28
-101
-60
-79
40
40
-7
-51
57
-8
7
14
16
-80
15
23
127
23
-29
-25
-45
12
12
13
-55
-5
19
-5
-1
6
23
-11
21
59
-28
4
-24
4
-1
-71
-4
81
-4
1
1
127
-25
-26
0
21
-9
7
7
16
1
-14
-31
-5
-12
-36
28
15
-22
-23
25
3
41
8
-56
-7
12
-5
-127
-24
-11
4
-1
8
-19
-2
-5
29
42
-127
72
-50
11
14
-49
-65
-80
-11
-13
-39
37
9
1
28
85
-44
-17
-16
94
-21
-52
3
-34
127
42
5
65
-47
-21
-28
-25
-18
-53
0
15
29
17
102
38
17
16
-7
-1
11
15
7
-82
-55
-68
-16
32
64
0
127
70
49
27
-45
48
-84
13
8
40
-5
19
-17
21
3
-50
56
12
66
-79
56
8
127
-24
27
-112
-3
-10
21
4
20
-113
13
6
3
-21
-37
88
-7
-13
-48
127
58
-68
-12
-70
1
-3
44
76
-40
9
-22
-4
-66
-13
-36
-57
-59
-15
81
32
20
108
-5
3
4
-1
-73
19
28
127
27
-59
-23
-32
2
-1
16
-72
25
15
-12
-3
13
30
-12
26
-75
59
48
-75
5
-22
6
12
87
127
-22
23
-39
-6
-83
5
22
1
-8
-5
30
25
47
-51
21
3
-26
-56
-100
-2
46
36
52
-84
1
-69
-33
-65
32
-127
108
-29
-34
21
37
-28
-1
16
127
-29
-16
-33
0
26
-76
14
48
35
-32
-31
20
27
18
9
-17
-16
46
59
-13
-20
10
87
54
53
-117
55
-42
25
27
45
-17
127
-60
-21
2
-74
5
119
-64
-75
-81
-78
67
-16
43
-25
-15
-120
25
-16
-1
119
107
-50
84
79
74
-10
69
-23
-17
26
113
22
12
-14
-50
39
51
-127
-19
-11
3
33
-7
-14
15
16
23
10
15
-64
9
22
5
-127
-31
-47
-2
-8
-6
-13
5
-15
-17
28
-62
9
-3
96
-104
56
-2
-6
-69
42
0
11
-10
54
5
95
-110
50
127
-14
-4
74
-30
19
-32
42
-12
71
-93
45
-35
-24
-39
127
2
-25
9
-39
32
49
-20
34
4
-7
1
70
21
6
8
30
-84
-88
-27
-75
-17
33
-45
-18
23
11
53
-5
12
-19
16
44
37
127
-34
-88
-92
-127
-87
-34
1
98
7
-6
79
36
21
85
76
-20
20
-11
33
-18
-3
-49
-3
9
65
-63
-59
54
-28
-2
-60
-2
-17
-72
57
19
16
-22
43
-30
-28
8
-15
7
-38
76
30
127
35
68
63
-14
-46
28
35
38
-24
76
-22
-56
-3
37
2
-2
28
-3
-43
16
-25
-6
11
-127
-4
-62
29
-29
-57
-127
-37
-26
-86
46
-99
39
69
-60
-44
-61
-49
-78
-29
-30
-37
-10
48
0
25
-10
-14
21
29
6
-5
41
-20
13
-38
41
-47
3
38
32
10
8
-127
112
18
-43
22
7
-19
37
-79
-34
22
0
10
96
9
-4
-41
56
-48
19
-88
65
127
14
60
6
-10
-71
-63
14
125
-66
2
90
-66
21
8
-12
-22
-4
24
-41
-28
20
71
-122
21
-6
-65
-34
7
24
24
4
127
-30
-15
27
-2
-14
-28
15
-8
4
30
-14
39
72
-17
-127
99
56
-76
-14
1
93
-39
-7
37
22
18
-26
63
-32
61
14
16
-45
-22
-47
13
127
7
-15
18
88
-5
4
-4
30
-53
51
-6
24
-96
127
84
-37
20
-34
-29
-31
2
-12
-44
-2
46
-32
-14
-24
-5
-88
-3
-4
30
45
21
120
15
19
-33
-13
-1
-105
-26
33
-33
-49
-88
51
-24
-59
-59
-13
-127
-77
61
19
68
-12
-45
21
12
-8
-5
6
115
-1
5
-127
1
-4
8
24
-2
9
-2
-119
7
-1
-2
21
-13
-9
-3
1
-10
-27
13
-22
6
-45
18
-19
10
-2
26
-127
-4
30
-10
111
-13
-22
16
-37
11
-16
4
-29
-12
19
-97
-100
-12
30
45
20
96
91
104
62
-41
127
41
-6
98
93
12
23
-10
-13
1
-59
-2
92
44
98
-4
-90
67
30
-127
2
26
58
-84
-2
64
-17
18
23
73
-79
104
9
-60
28
-90
127
-20
-9
2
-6
91
10
-112
-15
34
13
-106
100
92
6
32
34
-8
-14
31
-18
15
-12
42
-13
63
-11
38
-34
26
-30
0
11
6
127
-4
10
7
69
-68
-13
-16
27
-55
35
-7
-1
15
-19
-18
14
-5
-44
49
1
-31
6
-23
15
-127
-27
5
-35
-18
2
68
-61
-108
-7
6
43
-45
-72
6
119
-3
-63
-127
97
-18
58
66
92
-43
40
-52
8
-19
-79
-62
14
-112
18
38
5
-47
111
-59
-30
-66
-33
-58
-48
77
57
-21
29
12
-15
-29
-3
7
5
-44
19
41
127
-6
30
52
7
17
-31
-3
-115
52
-57
17
59
-10
-127
-31
24
1
111
-53
-66
51
-52
76
-36
-7
-105
18
48
-10
17
-55
23
-5
-16
-18
31
-28
127
1
-28
12
-113
11
9
-26
22
-7
-40
-2
7
-43
14
23
-53
57
64
36
52
-8
-2
9
23
19
26
-34
3
10
2
-77
-57
-10
-127
47
27
46
-30
-73
69
-118
-15
-12
-108
-29
-1
-12
-29
11
40
35
2
-24
12
-59
27
20
127
-7
-63
-48
25
36
-73
127
33
70
87
49
7
39
-66
-3
-117
125
-21
-9
38
36
-34
6
-91
22
-8
63
13
58
-88
41
1
127
-51
32
-104
-18
-2
10
7
21
-123
18
23
1
-21
-3
65
-19
-9
26
105
-48
-85
8
40
-104
-10
-10
-43
-117
-80
127
42
29
23
11
-51
-6
94
-50
-21
12
24
25
5
75
-68
-127
32
58
73
-8
-73
13
86
27
-44
35
107
18
-10
5
-8
-54
46
15
16
bias 144
-2678 11149 2095 10837 -1737 -1442 -3337 5492 405 6840 3618 32891 -352 2210 2068 4196 5499 4143 -4959 4626 -3707 -1305 5981 -4783 -2188 -3438 9424 -2038 21118 4368 9252 8689 -122 332515 23080 4823 1472 3724 -4961 3868 3107 2450 -1073741824 -4400 -181 12250 8350 3068 -721 -1184 -1430 -813 1289 2477 2714 -1073741760 -1876 -1603 -738 1530 15148 9060 16804 -415 2060 2224 19 6128 4863 2481 -211 3935 782 3600 6396 -4120 2648 -1079 3201 -2428 1222 4861 -2890 1167 7933 8806 7124 8577 2475 -3764 1186 3716 9113 7038 705 26649 5835 5033 4088 4226 1988 605 -1783 -3778 8152 4690 3701 2728 4303 2398 5455 7236 2735 14289 10146 3686 20998 -210 3521 16164 -13 2623 -2739 13844 4734 -1529 -735 3526 7121 6489 -6908 -86 3455 -729 -3584 1532 4838 7833 -635 3100 5916 9764 -3058 597
depthwiseconv2d 1 1 relu6
weight 1 3 3 144
16 -49 -2
-39 127 -24
-11 0 -1
28 -59 20
74 -127 76
31 -64 34
36 -30 -57
98 22 -127
44 36 -30
11 10 15
13 -127 10
7 19 8
2 31 -1
33 -127 32
5 19 -4
-31 4 24
-48 127 -6
-13 12 3
24 10 18
-19 -127 -1
23 5 20
-23 -50 3
-46 127 -31
2 -37 1
-51 68 -18
127 44 119
-21 69 -35
-99 122 12
94 17 -127
-4 -102 80
-15 -94 -3
-65 -62 -39
29 -127 23
-33 84 29
127 114 59
21 53 -44
26 65 0
-10 -127 1
-1 77 18
38 -36 3
31 -127 75
-46 11 51
-25 50 -18
22 127 21
-20 32 -14
-24 74 45
-127 2 87
-23 -51 14
-7 28 -16
-37 127 -78
-12 34 -27
-5 115 34
-22 -127 28
5 -16 -10
-62 44 -67
-59 127 -87
-67 63 -73
-27 40 -32
-54 127 -56
-30 46 -28
2 -15 1
-14 127 -12
1 -10 -2
12 -26 18
25 127 8
-17 25 6
8 117 -6
-106 9 119
-14 -127 2
42 119 41
50 42 93
34 127 20
55 1 3
13 -127 20
-3 4 46
19 39 -3
31 -127 59
11 36 3
37 62 2
-36 -127 -41
6 56 38
2 3 8
-12 127 2
6 7 6
9 -109 39
103 -123 70
38 -127 24
-52 -93 17
-98 25 127
1 72 -2
31 -68 -29
119 -8 -127
60 56 -33
-38 127 -42
102 -106 119
-57 104 -54
-11 29 19
-27 -127 -50
47 95 27
-127 -22 -126
-100 -1 -100
-73 79 -24
7 11 6
3 127 8
5 7 1
-80 59 85
-9 -127 3
85 50 -69
5 -42 23
-60 127 -73
24 -39 -7
-18 -11 -26
-9 127 -28
-30 -28 -15
3 88 3
68 -126 113
5 127 -58
-33 31 35
38 -127 31
35 24 -40
-18 -105 25
-102 -7 127
-13 78 15
-59 19 14
-127 109 30
-5 29 -13
0 0 0
0 -48 24
0 0 0
84 98 -60
103 -6 79
-83 127 76
-3 32 -27
25 127 32
-34 32 13
35 117 2
127 -54 -121
8 -95 -5
66 127 -74
-105 -82 -99
-59 125 61
-31 -24 -68
-122 70 -127
-41 -55 -5
2 54 17
28 -127 24
16 -28 15
-5 11 -21
34 127 -22
-20 -15 -28
-10 0 33
55 -127 84
21 -18 3
-65 -66 -16
-47 127 82
5 53 -29
17 17 4
-3 127 12
7 20 3
-40 -127 -45
33 117 44
12 -16 11
-30 -127 -73
-63 112 -107
-123 -116 2
0 0 0
0 5 0
0 0 0
-23 14 -86
113 127 -10
-49 88 -10
1 13 50
0 -127 13
51 4 -1
127 -30 -38
-12 52 -9
-53 -19 112
-25 -8 36
77 -127 51
41 -1 -44
76 -101 -48
108 -113 98
-31 -127 54
-14 -13 -11
-15 127 -25
-14 -28 -12
127 -4 7
-26 -78 -9
2 -6 3
37 127 30
17 39 39
-39 -69 -51
41 62 7
-68 -127 -62
18 75 56
-15 80 -28
-83 127 -88
-27 78 -12
-19 19 -4
-75 127 -9
-25 54 -19
3 -78 -24
61 127 16
-69 -26 18
-28 52 -23
-80 127 -52
-47 59 -18
-89 -13 48
-127 104 -12
3 49 -27
49 -43 27
60 -127 84
11 -39 30
1 -30 -10
-31 -127 -52
4 -32 -20
41 127 34
1 33 6
-58 -34 -48
5 -48 2
-28 -127 -38
18 -28 18
-15 -83 -31
-3 -65 -45
74 127 27
-73 126 71
127 14 112
66 115 -108
70 77 46
90 -18 127
50 75 70
8 -21 5
-3 127 11
12 -13 4
6 27 3
26 -127 36
4 25 0
24 8 18
-14 -127 -16
13 11 20
-54 -113 -29
-4 127 86
17 30 -39
9 -26 24
0 127 -25
-1 27 -6
37 -4 17
-8 -127 0
12 -3 19
10 -15 5
51 -127 35
-6 33 14
-23 -20 -12
-23 127 -28
-12 -38 -22
-27 -97 -20
5 127 20
7 18 12
-18 -102 22
-87 -26 127
-1 43 44
10 127 19
-7 -48 -32
2 -76 6
-8 35 -27
-37 127 -97
5 50 -47
-26 35 48
19 -127 -14
48 47 -16
33 -52 -3
-70 127 -66
6 -39 11
46 -55 34
-61 -127 -63
45 -69 39
8 -107 84
119 1 -117
-127 117 17
37 0 22
-127 -64 -126
26 2 28
-11 -13 -15
19 127 21
-27 -29 -12
-54 7 26
-5 127 -3
30 9 -51
-71 55 7
-112 127 -18
-35 58 -9
69 127 -60
-120 -12 -101
-67 113 46
8 127 72
-26 -124 3
-16 -23 -15
-127 -2 111
5 9 11
103 9 -126
-15 -92 -15
-19 -31 -44
32 127 31
46 73 -75
-110 127 56
-24 -124 52
79 127 45
-12 115 29
46 116 39
-5 10 -23
84 127 114
-17 4 2
-31 -127 -22
31 20 -4
2 104 18
23 74 -2
-67 -127 -51
35 97 21
38 -63 -26
127 1 -126
33 46 -29
-29 -127 -14
-46 21 -25
-38 -89 -1
21 -46 21
-63 127 -50
12 -12 -11
-86 -127 -22
-62 79 -115
-36 -123 7
23 6 15
9 -127 28
6 39 9
28 20 -20
109 14 -127
6 -22 -5
-2 127 10
-28 -9 -73
5 -28 -20
-12 -39 -16
-43 127 -40
-19 -57 -12
25 77 18
-55 -127 -58
20 85 26
-14 -71 -38
-127 -3 -55
-62 -54 -2
-15 76 41
-82 -57 -127
40 60 2
-7 42 -10
47 127 -24
-18 -21 -61
42 42 -35
-34 -127 -10
-1 100 31
25 18 21
28 -127 22
18 13 31
9 127 90
-70 57 -57
-20 -106 -23
28 -30 8
127 -84 -101
63 73 -2
127 -76 -7
-84 12 47
-6 66 -3
1 -34 16
-47 127 -42
11 -34 -2
40 -72 -46
126 9 -127
32 70 -32
2 25 13
-27 -127 -38
34 53 26
-36 -43 -40
7 127 7
-39 -43 -42
-49 -88 16
-104 35 127
6 44 10
23 -12 -9
127 -38 -81
21 -21 -12
46 -125 31
1 -76 4
39 -127 43
-1 -74 -82
-11 127 -17
-61 -94 11
-60 -22 101
-12 66 -17
127 -38 -59
5 64 32
-29 -127 -60
25 61 8
-7 -3 -6
2 127 16
-10 -10 -11
-8 23 -33
23 127 54
-12 62 12
44 17 -32
12 -127 30
-32 44 34
9 -20 11
-39 127 -69
6 -31 7
30 114 8
108 -13 -123
9 -127 -2
39 -52 -57
127 40 -55
4 2 -22
-23 -43 -13
21 127 35
-4 -50 -33
-18 -88 51
43 -74 127
-1 -85 47
-32 33 6
-122 -10 127
-8 -20 20
-22 -6 -21
-2 127 -5
-20 1 -19
-14 -4 -13
-44 127 -43
5 -11 -8
bias 144
-1702 -1535 148 624 590 -2732 11205 1109 -18088 13438 26491 -37087 -4558 -989 -15327 235 -1199 -69 9868 389 -3068 -14758 -650 -6466 -975 570 19 -5122 18239 175 -501 -2180 -780 54803 -19786 -1252 5572 2479 -5423 -322 -162 418 -1073741824 4716 -11390 -1964 7589 24271 11287 -1607 -2671 -2667 -9083 906 34360 -1073741824 -3911 -107 12174 -658 17620 6673 -8672 -3832 -408 126 -3693 -2774 201 9704 -4544 8761 -3075 12980 65 4891 -55434 -7194 14652 10334 -2892 -11619 10591 2667 1349 -4725 -318 -411 -912 -361 4278 14291 5744 9591 -5997 -10522 101 2692 -785 2743 379 -2138 909 1661 371 -1944 -47 16101 771 32301 -2390 -1340 -453 27201 -1370 32836 17038 -3755 -1276 -2222 24355 -9671 -5017 311 -360 1971 15532 202 -54 5655 19249 23850 -172 -705 -7737 127 -2256 -769 -364 -2586 227 221 8999 7039
conv2d 1 1 none
weight 24 1 1 144
-12
30
4
63
17
37
-10
2
-9
27
-23
-40
-12
13
78
-2
14
-11
-93
23
-2
32
-9
-11
10
28
-17
56
20
14
15
-52
13
-18
-85
-9
14
-46
59
0
-11
-10
0
-119
8
29
-28
-29
25
28
41
19
120
47
31
0
30
58
75
75
-8
21
40
14
3
54
26
9
49
-3
34
6
-5
-52
-36
57
53
-53
-26
55
25
-81
8
19
45
-42
6
-15
30
14
17
17
-31
-61
-29
-22
-18
-25
-45
2
-38
-15
50
16
-12
-50
18
80
27
-58
-85
23
-23
4
-10
-23
-65
10
61
-38
1
34
-3
-20
19
34
-11
-16
31
12
38
-27
-36
13
30
-23
10
-15
8
-16
18
25
127
-20
-4
-17
-3
0
-31
2
24
-10
-8
-7
28
-14
-18
-5
75
-5
22
-1
-25
4
51
2
9
20
-4
21
-37
16
-18
11
-1
49
-21
1
-38
-2
0
20
0
29
11
-2
0
0
41
26
-18
-6
-26
15
-15
5
84
-18
-48
0
11
-10
25
-8
6
-5
-6
10
-31
-3
-2
-6
-23
9
-19
-7
8
4
18
-11
-23
-4
127
8
-7
17
-51
-5
29
19
4
31
-19
-27
-5
17
15
-19
-53
33
-2
7
25
40
9
14
15
85
19
10
4
-44
-10
-30
-6
15
-7
-8
-13
5
-27
15
-14
0
-2
-3
3
30
-8
-33
19
-4
-7
8
18
28
-16
30
-8
31
33
-5
6
11
-16
11
22
-14
-36
11
24
20
8
32
88
8
97
19
-14
-12
-38
20
-11
23
-42
-56
-88
49
-127
42
-5
-40
-10
-71
-43
-40
-36
63
15
56
-19
-57
-74
-3
29
-40
-32
29
56
-4
0
-3
-45
-37
-84
90
-80
-47
-4
21
-3
-56
-44
0
-10
-13
12
-54
23
-65
49
-17
-11
-17
23
-18
-6
23
40
5
32
-34
-27
33
24
-102
-110
109
-56
-76
-54
-56
-89
34
24
-11
8
14
28
-6
-7
-36
-46
36
8
8
48
-53
12
17
-124
68
8
-1
23
-82
-41
-5
8
22
32
0
-24
74
-62
32
-93
-33
-24
-14
-3
34
13
-32
24
15
29
41
77
16
32
12
12
-2
-35
35
14
-2
-8
12
30
34
15
38
6
-121
38
9
16
-19
0
-21
-71
24
-51
55
-5
2
-98
61
-30
20
52
-29
-15
71
43
-83
7
-5
-38
-47
-20
89
0
38
-58
18
-67
56
37
-85
38
-17
0
55
-34
-34
-61
36
-25
-8
-11
-38
48
36
-44
0
-31
-40
-7
-26
78
-127
29
6
-22
-78
24
23
-25
17
23
-11
-26
46
-10
74
92
-38
39
23
-27
-29
-74
1
-104
-52
0
3
46
0
27
15
-3
-7
-74
40
68
11
29
-29
2
-64
13
36
-14
-34
-3
68
-55
35
22
16
15
116
-5
-37
11
-37
-40
42
-7
-32
19
52
-34
-3
13
26
-26
51
56
22
41
-17
-117
-32
-44
-7
-31
18
-42
-28
4
85
38
-4
12
-9
5
-19
10
-4
-10
34
10
-14
-9
18
-10
-42
-14
29
0
36
-10
8
-1
27
-22
22
-1
-1
3
-3
0
53
30
14
7
11
-8
-16
1
44
-58
5
0
-4
27
-20
0
12
-32
66
-3
-7
-19
-14
3
0
-41
-6
7
-22
4
-36
8
34
4
0
45
15
52
70
-6
-85
-49
8
-7
-6
3
12
-24
11
20
-10
-12
-82
-11
-89
9
4
-24
5
10
-20
-5
8
-13
4
-127
3
47
4
0
22
-5
-12
10
3
28
-6
5
1
5
-2
-8
-18
2
107
-6
-48
20
-5
-112
-8
-6
11
-23
-32
-12
76
-2
8
7
18
14
-15
1
0
9
9
28
-17
51
-5
-6
-51
-18
-21
-47
-49
9
-87
23
-5
48
17
22
11
26
-14
74
-30
-40
-10
22
-37
32
8
-7
5
-30
-67
-14
-12
-61
-34
-48
96
26
97
16
26
25
7
11
-9
-55
-10
0
37
-29
-44
18
9
-51
-40
7
-27
66
28
-16
0
-62
-9
-27
-3
-30
-54
24
-4
14
-12
-38
2
-33
-9
-14
-17
-16
-16
6
3
61
-10
-43
20
-11
15
18
-41
-15
6
-65
29
-45
14
34
38
6
4
33
14
-75
32
57
-15
29
-2
-37
-43
10
14
-54
11
-13
-39
-26
-59
14
127
7
24
57
-45
15
0
-14
-22
33
29
-51
26
-76
-44
-77
-17
-23
-3
23
33
10
-3
-49
-24
-55
-22
-53
-37
-63
-39
-37
18
-3
77
-27
17
11
31
-40
-9
-30
23
35
42
1
25
5
20
44
12
69
22
28
47
29
26
69
27
-19
-17
4
-26
22
17
51
-10
-41
-26
13
-14
0
-26
0
127
51
-12
19
-32
-17
15
-18
-25
32
12
-45
0
9
3
-70
-29
34
-24
-30
1
19
-30
35
-4
25
19
26
-1
7
-4
14
-101
23
28
-11
-83
13
-9
-11
8
61
16
-10
16
23
-23
44
-11
5
13
47
-2
-4
-16
19
-27
15
-14
89
-77
51
26
11
-5
-29
26
-33
-5
-1
-15
18
23
3
-23
-2
-13
22
-11
32
-1
-5
22
10
-27
-2
2
23
81
48
-71
-49
18
-13
17
14
18
11
40
-82
52
-15
4
-1
-39
-2
-4
-4
7
-22
31
9
0
-1
22
10
40
-9
-16
5
-36
-20
6
-15
-42
-4
29
13
8
14
-15
7
-22
25
6
-4
-9
-8
0
2
26
41
-2
0
-11
20
-7
6
19
31
39
0
-1
5
10
13
0
-23
9
-4
-10
15
34
7
20
11
1
22
14
41
41
5
127
-17
-23
4
-26
-14
4
33
-9
12
6
-4
47
-18
-29
5
-11
-10
5
5
-7
-9
-3
5
-6
-76
-16
-42
13
2
2
0
-19
-17
-5
-12
10
-13
14
-5
8
12
13
9
62
4
-24
19
29
93
2
-4
11
16
1
-13
-59
5
-4
8
4
-22
-8
13
-7
12
-15
10
-10
31
-14
-16
29
-18
-12
-32
73
27
-14
-70
-20
-33
-30
-6
-38
-15
-24
16
30
7
98
17
-28
-24
3
24
84
1
49
-37
-5
-4
-43
-12
-77
37
95
51
37
-86
-17
-13
48
-20
-39
0
-122
1
5
-2
57
26
13
9
1
8
17
26
0
-7
30
42
3
-36
80
-11
11
-3
-108
-6
18
-29
24
-21
13
2
-38
38
67
-19
34
-23
63
2
5
79
41
92
52
-12
62
-31
43
-42
-3
17
19
35
-40
-14
7
21
31
22
49
-17
-127
33
51
-42
-70
-15
-17
-8
-60
7
-62
37
14
88
19
-32
20
52
-1
-33
43
-29
15
-66
-18
-48
-22
-36
-74
50
74
-101
3
-3
-6
-8
40
-18
-10
4
92
4
3
26
-59
1
40
-26
29
-75
17
16
-51
58
-17
44
-28
42
-32
4
21
-19
-23
7
-24
24
-7
32
26
-53
33
-12
8
53
-24
9
-6
43
-5
45
31
15
36
0
23
-33
20
4
-8
-65
-17
34
20
69
-49
27
0
42
17
22
4
-51
-25
27
16
45
13
18
-72
21
-65
11
-26
52
-11
-1
8
24
-25
113
-46
13
28
35
-61
-106
75
5
-19
0
39
15
-9
1
-2
36
2
23
4
87
-32
56
5
111
-13
-37
64
41
-127
-32
-24
-41
-23
29
1
9
0
-64
59
-20
16
-47
-19
36
74
38
45
-29
22
-5
-35
8
8
21
18
70
28
-20
19
54
-11
24
-39
22
-72
79
-40
2
67
41
-12
-35
49
45
-9
-81
-59
-25
68
6
13
-33
40
-63
-25
-4
-5
25
-53
31
14
-1
31
-78
-17
-6
-47
32
-2
57
15
30
-41
26
41
-55
21
0
-72
-1
-31
-95
75
57
-8
-22
-27
10
5
-47
0
-21
15
-48
2
42
51
-31
3
-49
-17
0
89
-48
36
-9
7
-32
69
-23
-43
4
55
-127
27
-32
35
-4
19
2
-9
-19
16
10
49
44
-76
17
-45
25
5
-4
-50
-19
64
17
41
13
-31
11
-31
-6
16
65
76
37
-38
19
-97
-14
2
24
-20
-28
-8
17
3
31
-35
30
12
-48
-29
-31
-69
103
-24
1
44
34
56
18
24
-30
55
-78
-7
-53
3
40
-16
29
-97
-17
22
-82
-14
-48
34
-51
38
-1
15
16
7
-53
3
62
-4
-6
105
-35
-40
-20
-31
38
12
9
87
41
3
15
-127
54
-4
11
51
15
-17
-3
-45
0
-12
-9
6
-23
29
-27
-25
-56
22
7
-22
-21
0
17
9
8
-53
57
73
25
20
24
-55
-37
27
-47
32
11
-25
46
-36
8
0
6
6
63
-39
-23
69
15
-36
-36
31
12
-56
-15
1
-25
53
-33
51
3
29
30
-30
19
-6
-38
-23
60
-64
-15
-12
44
-2
-7
52
-14
16
-41
46
-4
11
49
9
-33
-69
-46
-7
-12
-10
26
44
-49
6
17
-24
-13
6
79
17
-16
-35
24
-96
7
22
13
10
-77
70
6
-4
76
-55
30
-8
-72
-64
17
-24
-15
-117
-1
-19
-37
34
48
2
22
46
70
-1
89
-14
-23
-64
-9
4
14
-80
55
110
-25
5
9
37
32
46
19
22
-98
7
0
-2
42
-99
-34
-90
-81
-49
6
-88
-62
-26
-11
0
-4
19
24
26
-67
-106
17
-44
-36
41
-16
-4
24
-6
-18
-21
-10
60
15
74
35
24
-2
-15
-54
14
22
-61
-57
-12
-58
-35
-37
-11
2
-12
-14
3
-11
-115
-33
26
86
-16
13
19
98
56
23
-26
102
20
-22
-2
24
-32
-16
53
-22
-1
-27
-84
-30
2
-18
47
10
13
101
-36
53
-67
3
14
-98
30
-3
121
1
-47
-1
-97
21
12
31
44
127
-15
-24
-42
8
79
32
-3
16
23
8
48
19
11
-2
0
1
-8
-6
2
-48
-21
-53
-26
13
17
-24
24
-12
31
-38
-21
-1
-26
-26
0
88
-46
10
-4
14
25
6
-3
0
-62
-8
-20
1
-29
-53
-42
-21
37
12
-9
13
0
26
26
10
32
-33
117
-9
-4
-6
-56
-77
-40
-36
-7
-17
-9
39
13
-2
-127
22
36
-107
-17
-5
29
29
-56
-11
10
-7
-7
-50
-32
28
10
-38
-6
-28
69
-31
-30
56
51
-5
-28
6
-9
18
-41
33
27
-15
-28
38
2
-2
-15
-14
-29
-66
25
51
39
-26
-7
26
27
-13
-12
-40
4
-16
-56
21
2
-34
35
-22
46
24
1
-23
-38
2
25
-47
-10
-4
-30
3
-47
-3
-26
-20
2
2
-33
-18
-25
-8
0
-6
-11
-14
-34
-28
-13
14
22
-32
19
10
-22
-19
2
-62
58
-2
99
-29
-17
36
14
-3
-21
17
-6
73
4
0
3
-31
32
-24
-53
4
24
5
-6
-31
-25
-18
0
-7
-52
40
21
-15
-127
34
5
-30
-18
-14
-17
-34
14
-37
-2
-40
-25
-13
-10
18
-36
-16
-51
19
46
10
11
-59
-53
46
20
-27
8
13
0
49
20
-36
57
-2
25
-34
-2
-16
30
73
62
-20
-53
-14
37
-12
-39
-23
24
3
64
-26
-2
-80
-10
21
-5
-6
-30
13
101
5
-15
-7
56
57
-12
14
42
-9
-2
-15
15
27
45
22
-32
-29
-3
-25
11
-59
-1
-45
-34
3
-15
14
-5
0
-1
9
-10
-3
-4
-8
32
5
-2
-12
57
3
-34
21
71
-3
37
2
-1
1
79
-5
-20
4
23
5
4
0
-21
6
9
-15
-75
0
6
17
14
-2
-10
-4
16
10
-8
-13
13
11
0
-18
1
-9
14
-11
-13
-17
6
-2
-27
4
7
17
12
-9
-10
-14
25
2
-3
-6
12
41
14
12
17
10
13
6
-11
-4
24
-2
-3
3
-4
8
-22
21
-12
-17
-9
14
8
-39
2
-7
22
-20
4
39
9
2
-9
4
-6
-108
28
-3
-2
-7
-8
8
-127
10
-4
0
-1
-20
-4
13
-52
0
-7
10
-8
41
29
-20
15
8
51
0
-12
8
-24
-2
59
30
6
-10
7
-12
-13
-16
0
8
9
21
-23
-11
5
-17
10
-1
51
-6
-21
1
-10
-12
7
-10
-36
10
8
-104
-11
-8
-9
17
2
-13
49
-23
15
-3
12
-15
-11
0
-5
7
-6
-36
-20
57
-24
-7
-19
1
4
-30
0
-13
-7
110
12
-11
-65
9
3
9
13
-14
-15
12
-12
-7
24
28
15
15
-8
-2
3
-49
-7
-15
-14
-13
47
-39
25
-1
15
14
-4
-5
10
-5
60
-1
41
-1
69
-34
-58
-12
-12
14
26
3
17
-25
-7
25
-17
-5
7
-12
26
9
-1
-63
-9
7
-20
32
-3
0
-23
-2
7
-15
2
-23
55
8
127
-18
19
-23
10
-17
-19
4
-4
13
-15
28
40
-39
31
-46
68
-24
-2
-22
22
3
-22
10
10
-30
29
-24
-39
22
-53
6
26
-61
1
-8
-4
28
28
17
20
-84
-20
-45
-127
28
-18
-25
32
38
-21
-11
10
-21
2
0
-38
50
7
-32
30
-70
21
8
-21
-11
56
-9
0
-14
17
110
19
17
106
-20
24
19
11
33
14
35
24
22
-37
10
-28
-25
-37
-77
12
-42
-6
15
2
-21
-66
55
17
-63
-19
46
0
-26
35
4
47
12
26
20
36
64
-46
24
-3
7
6
-4
16
-36
17
-20
15
-15
-15
32
43
36
-24
-41
-11
12
13
-49
-10
-34
0
-54
26
5
-28
-95
60
44
120
18
2
26
11
-13
5
1
13
9
-42
37
-67
9
11
55
15
14
-23
7
-7
18
-9
0
-14
-2
-1
30
16
-11
-2
-17
-9
17
-2
22
-14
9
45
21
9
9
57
42
-61
9
-105
-5
12
-6
-33
10
-3
69
9
0
-17
-2
41
1
-22
-21
8
-1
-15
-9
4
-27
0
-18
5
31
-3
14
-12
-44
9
1
-10
-25
4
-8
7
-13
-10
-2
10
14
-10
-3
27
-51
1
-10
-15
7
-29
-20
-10
66
77
-11
-6
-8
-48
0
3
33
-9
-3
27
23
-20
18
-10
-25
-13
16
-1
45
1
-18
-15
-14
39
20
-127
10
0
-1
-6
6
-1
1
15
-1
8
55
3
-43
61
80
4
-21
16
6
-36
-2
4
56
53
-10
3
5
39
-22
-11
22
21
29
35
-14
1
72
29
20
-44
108
-63
20
-20
15
57
96
88
-72
17
-79
32
78
-5
38
41
-17
2
58
-80
41
-77
14
60
-50
-62
-41
-31
-20
17
-127
-19
0
35
32
-62
46
-12
66
5
36
-57
4
8
5
0
50
40
-87
49
-61
97
10
33
-23
4
2
23
33
-42
-18
15
-21
-50
34
-86
-20
-22
-48
16
15
-42
-7
47
-11
-15
-38
-3
-41
1
11
-20
29
-54
-1
-65
-35
-20
-32
34
2
34
-95
13
-4
-2
35
6
18
34
-12
-26
-35
-73
14
-42
20
-66
40
-15
30
53
3
2
68
4
-35
-58
-50
-12
-61
-42
3
9
-11
12
12
-93
22
16
-4
4
12
62
-103
-22
33
-25
-70
66
-60
-46
-47
-1
-116
-22
-24
7
47
12
-32
-63
-6
-96
-72
-19
77
61
2
80
44
28
14
-79
93
11
0
69
38
-8
4
-18
38
-21
-79
0
0
-1
25
5
-89
-17
8
-18
-68
-40
5
-63
-118
0
66
17
16
-76
88
-30
33
39
-14
-44
5
83
-37
30
17
0
47
-127
10
-15
18
-64
76
3
-53
2
-4
15
16
3
-46
0
6
-16
-10
74
-21
7
8
-2
69
-78
-67
10
-34
-4
32
-42
-38
-37
72
-40
-18
35
-113
33
-42
88
-28
5
19
-26
-96
7
4
26
-42
45
105
19
-21
-58
30
3
18
56
-66
122
43
-30
52
-81
23
95
2
61
-53
-104
10
0
-10
-40
-1
-1
-14
-25
3
-1
-40
9
0
-14
7
-6
-2
-26
19
-8
-17
35
-19
-33
-1
-7
1
-1
-21
40
-9
45
18
1
9
-1
26
-7
11
-62
28
11
0
-1
0
-4
-12
2
-28
-16
-2
0
-5
-7
-16
0
20
-13
16
5
16
-39
-3
32
8
-3
5
11
-14
-116
-12
35
-28
-6
8
43
22
-15
-10
12
0
5
4
-34
18
-54
14
5
49
8
-20
-11
-2
25
34
27
64
-1
15
-28
7
-41
9
-12
19
16
-19
-17
-5
-3
13
-6
9
37
-4
-127
-1
7
-46
-18
0
-19
-11
0
-20
-22
0
0
11
1
9
-11
15
25
28
24
-12
21
-44
23
-31
6
-11
7
36
-38
-64
-56
-1
-20
28
-63
60
-83
-2
50
-17
-25
55
-18
3
24
29
-23
-37
10
8
-10
80
-49
-77
26
-23
9
-33
119
-12
28
7
-53
28
-19
69
-14
-14
-6
0
44
17
40
15
-51
27
30
-20
-31
-6
-1
-16
0
13
-5
-31
-57
-61
-127
29
11
-7
10
14
-81
-12
43
-4
8
56
23
66
58
72
-14
60
-11
48
41
29
13
-20
30
-5
93
-58
-90
-52
-20
-21
21
26
75
-21
12
23
11
36
-84
8
29
22
34
-66
-9
17
-87
7
-44
24
98
12
28
8
-23
-7
-30
8
-69
-55
-54
-61
-4
-30
-16
-36
-24
-29
-56
16
1
10
-9
-24
51
-21
-25
-10
-46
-54
15
4
13
-10
2
36
-8
21
27
31
-14
-20
38
8
18
-4
-9
-1
-26
-37
27
11
4
-31
-1
38
11
10
16
52
-23
-16
-51
-6
9
12
-13
-3
-14
30
27
-11
2
0
-40
-27
-13
-2
-2
16
-13
23
-45
-25
-39
23
0
-34
5
-45
-1
22
67
-14
-45
-18
19
23
-53
0
-4
10
2
-33
-5
-52
-17
18
14
-127
-4
-31
-31
-1
14
13
23
-16
-34
9
5
12
10
-7
-37
-26
2
-3
-23
-37
17
-41
-10
29
11
-13
14
-16
-26
11
18
-6
-4
-10
32
-9
7
2
-17
-11
8
-5
9
16
3
-33
-26
9
-4
3
-15
34
-55
-10
-42
-10
37
-5
8
-19
-42
-22
-2
14
6
bias 24
-21068 -21136 35281 11930 19774 34561 4432 -38699 -24194 18749 5405 8716 45397 19159 41834 -14709 -1056 -6794 20764 -13017 20485 24402 36307 3065